{"learner":{"attributes":{},"feature_names":[],"feature_types":[],"gradient_booster":{"model":{"cats":{"enc":[],"feature_segments":[],"sorted_idx":[]},"gbtree_model_param":{"num_parallel_tree":"1","num_trees":"100"},"iteration_indptr":[0,1,2,3,4,5,6,7,8,9,10,11,12,13,14,15,16,17,18,19,20,21,22,23,24,25,26,27,28,29,30,31,32,33,34,35,36,37,38,39,40,41,42,43,44,45,46,47,48,49,50,51,52,53,54,55,56,57,58,59,60,61,62,63,64,65,66,67,68,69,70,71,72,73,74,75,76,77,78,79,80,81,82,83,84,85,86,87,88,89,90,91,92,93,94,95,96,97,98,99,100],"tree_info":[0,0,0,0,0,0,0,0,0,0,0,0,0,0,0,0,0,0,0,0,0,0,0,0,0,0,0,0,0,0,0,0,0,0,0,0,0,0,0,0,0,0,0,0,0,0,0,0,0,0,0,0,0,0,0,0,0,0,0,0,0,0,0,0,0,0,0,0,0,0,0,0,0,0,0,0,0,0,0,0,0,0,0,0,0,0,0,0,0,0,0,0,0,0,0,0,0,0,0,0],"trees":[{"base_weights":[3.9494093E-4,-2.6412806E-1,1.624981E1,-3.044746E-1,5.159699E0,2.215019E1,5.0288754E0,-3.072159E-1,1.4938917E0,7.535559E0,2.211218E-1,1.515255E1,3.034999E1,2.0552993E0,2.9954863E1,-3.0735594E-1,4.2644438E-1,2.231077E0,-1.6181833E-1,5.604973E0,9.450965E0,1.1392485E0,-2.190603E-1,1.23893175E1,1.7812408E1,2.5712597E1,3.954605E1,4.994406E-1,7.1591067E0,2.4472675E1,4.1253437E1,-1.5368258E-2,1.6669003E-2,3.6361743E-2,-1.530996E-2,7.271039E-2,1.3775325E-1,4.7455966E-3,-1.4433086E-2,2.2921339E-1,3.3769733E-1,5.0997585E-1,3.1788647E-1,-1.1672751E-2,1.9758503E-1,3.115393E-1,-1.2491518E-2,6.519963E-1,3.7090197E-1,9.271919E-1,4.518892E-1,1.3323944E0,6.444528E-1,2.0807846E0,9.9378604E-1,1.0642866E-1,-1.442498E-2,8.2929575E-1,6.89099E-3,1.50216E0,6.6061294E-1,2.5507038E0,1.6940988E0],"categories":[],"categories_nodes":[],"categories_segments":[],"categories_sizes":[],"default_left":[0,0,0,0,0,0,0,0,0,0,0,0,0,0,0,0,0,0,0,0,0,0,0,0,0,0,0,0,0,0,0,0,0,0,0,0,0,0,0,0,0,0,0,0,0,0,0,0,0,0,0,0,0,0,0,0,0,0,0,0,0,0,0],"id":0,"left_children":[1,3,5,7,9,11,13,15,17,19,21,23,25,27,29,31,33,35,37,39,41,43,45,47,49,51,53,55,57,59,61,-1,-1,-1,-1,-1,-1,-1,-1,-1,-1,-1,-1,-1,-1,-1,-1,-1,-1,-1,-1,-1,-1,-1,-1,-1,-1,-1,-1,-1,-1,-1,-1],"loss_changes":[2.0404446E7,1.0221709E6,5.03426E6,2.2857906E4,4.046822E5,2.858978E6,1.9423092E6,4.7578125E2,8.613888E3,8.6059125E4,4.528267E3,1.97415E5,9.7749E5,1.8592239E5,1.7199125E5,2.740625E1,1.9503168E2,1.9837168E3,7.085527E1,1.3573094E4,2.6998125E4,1.4018988E4,1.5047085E3,4.2570875E4,8.7753E4,1.82633E5,3.12236E5,2.3035875E4,3.6204788E5,1.17717E5,6.381825E4,0E0,0E0,0E0,0E0,0E0,0E0,0E0,0E0,0E0,0E0,0E0,0E0,0E0,0E0,0E0,0E0,0E0,0E0,0E0,0E0,0E0,0E0,0E0,0E0,0E0,0E0,0E0,0E0,0E0,0E0,0E0,0E0],"parents":[2147483647,0,0,1,1,2,2,3,3,4,4,5,5,6,6,7,7,8,8,9,9,10,10,11,11,12,12,13,13,14,14,15,15,16,16,17,17,18,18,19,19,20,20,21,21,22,22,23,23,24,24,25,25,26,26,27,27,28,28,29,29,30,30],"right_children":[2,4,6,8,10,12,14,16,18,20,22,24,26,28,30,32,34,36,38,40,42,44,46,48,50,52,54,56,58,60,62,-1,-1,-1,-1,-1,-1,-1,-1,-1,-1,-1,-1,-1,-1,-1,-1,-1,-1,-1,-1,-1,-1,-1,-1,-1,-1,-1,-1,-1,-1,-1,-1],"split_conditions":[3.604191E0,1.0181774E0,6.380324E0,2.6203305E-1,1.6948342E0,6.6603894E0,1.4810251E1,1.0524861E-1,6.6589725E-1,2.3590734E0,2.0300028E0,4.8653126E0,9.82978E0,7.8375916E0,1.7798532E1,1.02297544E-1,1.9100328E-1,5.803338E-1,5.4656225E-1,1.8617407E0,3.0304303E0,1.7365146E0,2.6257772E0,1.8787342E0,1.1973851E0,7.3605484E-1,1.0499778E0,5.638917E0,9.192309E0,1.8874964E1,9.865971E0,-1.5368258E-2,1.6669003E-2,3.6361743E-2,-1.530996E-2,7.271039E-2,1.3775325E-1,4.7455966E-3,-1.4433086E-2,2.2921339E-1,3.3769733E-1,5.0997585E-1,3.1788647E-1,-1.1672751E-2,1.9758503E-1,3.115393E-1,-1.2491518E-2,6.519963E-1,3.7090197E-1,9.271919E-1,4.518892E-1,1.3323944E0,6.444528E-1,2.0807846E0,9.9378604E-1,1.0642866E-1,-1.442498E-2,8.2929575E-1,6.89099E-3,1.50216E0,6.6061294E-1,2.5507038E0,1.6940988E0],"split_indices":[7,7,0,7,0,7,7,8,0,7,8,8,7,7,7,7,0,7,8,8,9,7,0,2,2,2,2,8,8,0,8,0,0,0,0,0,0,0,0,0,0,0,0,0,0,0,0,0,0,0,0,0,0,0,0,0,0,0,0,0,0,0,0],"split_type":[0,0,0,0,0,0,0,0,0,0,0,0,0,0,0,0,0,0,0,0,0,0,0,0,0,0,0,0,0,0,0,0,0,0,0,0,0,0,0,0,0,0,0,0,0,0,0,0,0,0,0,0,0,0,0,0,0,0,0,0,0,0,0],"sum_hessian":[4.747046E6,4.671008E6,7.6038E4,4.636519E6,3.4489E4,4.9833E4,2.6205E4,4.629463E6,7.056E3,2.3286E4,1.1203E4,2.6889E4,2.2944E4,2.3413E4,2.792E3,4.62858E6,8.83E2,4.882E3,2.174E3,1.1599E4,1.1687E4,3.63E3,7.573E3,1.3191E4,1.3698E4,1.5255E4,7.689E3,1.7944E4,5.469E3,1.882E3,9.1E2,4.628514E6,6.6E1,6.26E2,2.57E2,1.968E3,2.914E3,7.19E2,1.455E3,6.145E3,5.454E3,9.408E3,2.279E3,2.44E3,1.19E3,3.5E1,7.538E3,1.1663E4,1.528E3,1.2643E4,1.055E3,1.4217E4,1.038E3,6.956E3,7.33E2,5.849E3,1.2095E4,2.334E3,3.135E3,1.258E3,6.24E2,3.89E2,5.21E2],"tree_param":{"num_deleted":"0","num_feature":"11","num_nodes":"63","size_leaf_vector":"1"}},{"base_weights":[1.1368903E-3,-2.4336715E-1,1.5552348E1,-2.875495E-1,5.337778E0,2.3220266E1,1.1438982E0,-2.885583E-1,2.3219492E1,7.831943E0,1.0604862E0,4.1756405E1,4.4263024E0,4.921208E-2,1.5746245E1,-2.917211E-1,1.5916055E0,1.8414293E1,3.4583603E1,1.4253184E1,1.529645E0,7.887576E-1,2.3052547E1,2.9586645E1,5.6118095E1,1.7998543E0,2.9065357E1,-4.9415E-1,5.217504E0,1.2608263E1,3.3879257E1,-1.4594517E-2,4.022405E-1,1.1672349E-1,2.293064E-2,7.875594E-1,1.1499693E0,1.5141213E0,2.122971E0,5.405356E-1,8.9175284E-1,-2.4351063E-3,2.7433214E-1,-2.6682809E-2,1.38692E-1,8.2093924E-1,1.8010775E0,1.2165871E0,1.6736408E0,2.4314573E0,3.5028634E0,1.8836273E-2,3.2071093E-1,5.243246E-1,1.662397E0,1.5182625E-2,-8.645787E-2,4.025809E-1,1.0752402E-2,1.0441084E0,4.552897E-1,2.356811E0,3.790242E-1],"categories":[],"categories_nodes":[],"categories_segments":[],"categories_sizes":[],"default_left":[0,0,0,0,0,0,0,0,0,0,0,0,0,0,0,0,0,0,0,0,0,0,0,0,0,0,0,0,0,0,0,0,0,0,0,0,0,0,0,0,0,0,0,0,0,0,0,0,0,0,0,0,0,0,0,0,0,0,0,0,0,0,0],"id":1,"left_children":[1,3,5,7,9,11,13,15,17,19,21,23,25,27,29,31,33,35,37,39,41,43,45,47,49,51,53,55,57,59,61,-1,-1,-1,-1,-1,-1,-1,-1,-1,-1,-1,-1,-1,-1,-1,-1,-1,-1,-1,-1,-1,-1,-1,-1,-1,-1,-1,-1,-1,-1,-1,-1],"loss_changes":[1.8050302E7,1.1524758E6,8.118472E6,1.0996825E5,3.916027E5,1.6707176E7,4.08E5,2.7573375E4,1.0229914E4,9.383229E5,8.078756E4,4.21836E6,1.5410926E6,6.668457E4,1.0085675E5,6.5328438E3,6.5529355E3,1.3716406E3,6.789922E2,1.41423E5,7.309153E4,3.5067574E4,1.36040625E4,2.66134E5,1.152604E6,1.41329E5,1.7791275E5,2.1171492E4,3.2025305E4,4.3829094E4,9.0986875E4,0E0,0E0,0E0,0E0,0E0,0E0,0E0,0E0,0E0,0E0,0E0,0E0,0E0,0E0,0E0,0E0,0E0,0E0,0E0,0E0,0E0,0E0,0E0,0E0,0E0,0E0,0E0,0E0,0E0,0E0,0E0,0E0],"parents":[2147483647,0,0,1,1,2,2,3,3,4,4,5,5,6,6,7,7,8,8,9,9,10,10,11,11,12,12,13,13,14,14,15,15,16,16,17,17,18,18,19,19,20,20,21,21,22,22,23,23,24,24,25,25,26,26,27,27,28,28,29,29,30,30],"right_children":[2,4,6,8,10,12,14,16,18,20,22,24,26,28,30,32,34,36,38,40,42,44,46,48,50,52,54,56,58,60,62,-1,-1,-1,-1,-1,-1,-1,-1,-1,-1,-1,-1,-1,-1,-1,-1,-1,-1,-1,-1,-1,-1,-1,-1,-1,-1,-1,-1,-1,-1,-1,-1],"split_conditions":[3.615148E0,1.1019963E0,6.3536696E0,4.055482E0,1.9871131E0,6.236707E0,1.1540101E1,1.8844476E-1,8.19222E0,1.9487277E0,7.0265985E0,7.3656416E0,1.0076072E1,9.435558E0,2.0324276E1,1.234979E0,5.2201855E-1,6.123851E0,1.0260589E1,2.446668E0,2.0239103E0,2.105245E0,5.0606885E0,4.8653126E0,1.02583275E1,4.9799695E0,7.3656416E0,8.526049E0,4.108159E0,1.1179864E1,3.7838516E0,-1.4594517E-2,4.022405E-1,1.1672349E-1,2.293064E-2,7.875594E-1,1.1499693E0,1.5141213E0,2.122971E0,5.405356E-1,8.9175284E-1,-2.4351063E-3,2.7433214E-1,-2.6682809E-2,1.38692E-1,8.2093924E-1,1.8010775E0,1.2165871E0,1.6736408E0,2.4314573E0,3.5028634E0,1.8836273E-2,3.2071093E-1,5.243246E-1,1.662397E0,1.5182625E-2,-8.645787E-2,4.025809E-1,1.0752402E-2,1.0441084E0,4.552897E-1,2.356811E0,3.790242E-1],"split_indices":[8,8,1,1,1,0,9,8,1,0,0,8,9,9,9,1,1,1,1,8,9,9,10,8,8,9,8,8,0,1,3,0,0,0,0,0,0,0,0,0,0,0,0,0,0,0,0,0,0,0,0,0,0,0,0,0,0,0,0,0,0,0,0],"split_type":[0,0,0,0,0,0,0,0,0,0,0,0,0,0,0,0,0,0,0,0,0,0,0,0,0,0,0,0,0,0,0,0,0,0,0,0,0,0,0,0,0,0,0,0,0,0,0,0,0,0,0,0,0,0,0,0,0,0,0,0,0,0,0],"sum_hessian":[4.747162E6,4.673681E6,7.3481E4,4.636974E6,3.6707E4,4.7958E4,2.5523E4,4.636776E6,1.98E2,2.3186E4,1.3521E4,2.4144E4,2.3814E4,2.3744E4,1.779E3,4.62899E6,7.786E3,1.41E2,5.7E1,1.1484E4,1.1702E4,1.3357E4,1.64E2,1.3071E4,1.1073E4,2.1521E4,2.293E3,2.1486E4,2.258E3,1.518E3,2.61E2,4.628897E6,9.3E1,4.702E3,3.084E3,9.2E1,4.9E1,4E1,1.7E1,5.858E3,5.626E3,8.366E3,3.336E3,8.017E3,5.34E3,1.1E2,5.4E1,5.56E3,7.511E3,7.206E3,3.867E3,1.6449E4,5.072E3,4.22E2,1.871E3,1.3054E4,8.432E3,1.441E3,8.17E2,4.5E2,1.068E3,1.73E2,8.8E1],"tree_param":{"num_deleted":"0","num_feature":"11","num_nodes":"63","size_leaf_vector":"1"}},{"base_weights":[1.3632942E-3,-2.383994E-1,1.4743274E1,-2.7438432E-1,4.7139673E0,2.0109854E1,4.6711335E0,-2.7727643E-1,1.4063683E0,6.965833E0,2.996189E-1,1.3804991E1,2.7675636E1,1.9076438E0,2.8077375E1,-2.7739075E-1,3.7248668E-1,2.1376154E0,-2.4212511E-1,4.9148607E0,8.9882555E0,3.5056922E0,1.6942909E-3,1.0097627E1,1.7373035E1,2.0753637E1,3.468857E1,4.6782595E-1,6.6174893E0,2.4808088E1,4.5060272E1,-1.3870149E-2,9.433973E-3,3.2682437E-2,-1.7712459E-2,7.0324235E-2,1.4816493E-1,-2.462446E-4,-1.8253015E-2,1.7911792E-1,3.0636504E-1,3.440121E-1,5.4401755E-1,1.2674217E-1,3.3227876E-1,3.8602844E-2,-1.4707528E-2,4.0015823E-1,5.815011E-1,6.891007E-1,1.0135545E0,9.415361E-1,1.5349168E0,1.451881E0,2.287927E0,1.0482832E-1,-1.7029475E-2,8.0870813E-1,4.4164932E-3,1.7669804E0,9.856631E-1,7.4694294E-1,2.3785343E0],"categories":[],"categories_nodes":[],"categories_segments":[],"categories_sizes":[],"default_left":[0,0,0,0,0,0,0,0,0,0,0,0,0,0,0,0,0,0,0,0,0,0,0,0,0,0,0,0,0,0,0,0,0,0,0,0,0,0,0,0,0,0,0,0,0,0,0,0,0,0,0,0,0,0,0,0,0,0,0,0,0,0,0],"id":2,"left_children":[1,3,5,7,9,11,13,15,17,19,21,23,25,27,29,31,33,35,37,39,41,43,45,47,49,51,53,55,57,59,61,-1,-1,-1,-1,-1,-1,-1,-1,-1,-1,-1,-1,-1,-1,-1,-1,-1,-1,-1,-1,-1,-1,-1,-1,-1,-1,-1,-1,-1,-1,-1,-1],"loss_changes":[1.6780608E7,8.325297E5,4.106796E6,2.2544844E4,3.349935E5,2.36407E6,1.7083515E6,3.4409375E2,9.60439E3,9.2521E4,1.0874584E4,3.574975E5,1.092966E6,1.6019881E5,1.5373275E5,2.640625E1,1.6676094E2,3.3275547E3,7.141165E1,1.7881906E4,4.4736688E4,2.933959E3,2.3745708E3,4.2475E4,1.4309775E5,2.162935E5,6.98671E5,2.3825064E4,3.4511656E5,1.249125E5,3.32415E4,0E0,0E0,0E0,0E0,0E0,0E0,0E0,0E0,0E0,0E0,0E0,0E0,0E0,0E0,0E0,0E0,0E0,0E0,0E0,0E0,0E0,0E0,0E0,0E0,0E0,0E0,0E0,0E0,0E0,0E0,0E0,0E0],"parents":[2147483647,0,0,1,1,2,2,3,3,4,4,5,5,6,6,7,7,8,8,9,9,10,10,11,11,12,12,13,13,14,14,15,15,16,16,17,17,18,18,19,19,20,20,21,21,22,22,23,23,24,24,25,25,26,26,27,27,28,28,29,29,30,30],"right_children":[2,4,6,8,10,12,14,16,18,20,22,24,26,28,30,32,34,36,38,40,42,44,46,48,50,52,54,56,58,60,62,-1,-1,-1,-1,-1,-1,-1,-1,-1,-1,-1,-1,-1,-1,-1,-1,-1,-1,-1,-1,-1,-1,-1,-1,-1,-1,-1,-1,-1,-1,-1,-1],"split_conditions":[3.604191E0,1.0803039E0,5.904122E0,2.6203305E-1,1.2101284E0,7.3395443E0,1.4810251E1,1.02297544E-1,6.6589725E-1,6.863875E-1,2.2872524E0,6.863875E-1,6.863875E-1,7.8375916E0,2.041328E1,1.0524861E-1,3.2380912E-1,6.863875E-1,6.17819E-1,2.2280085E0,2.446668E0,2.5854585E0,2.0300028E0,4.849309E0,4.4232826E0,1.0825874E1,9.865971E0,5.638917E0,1.5229313E1,1.4135617E1,-1.2398893E0,-1.3870149E-2,9.433973E-3,3.2682437E-2,-1.7712459E-2,7.0324235E-2,1.4816493E-1,-2.462446E-4,-1.8253015E-2,1.7911792E-1,3.0636504E-1,3.440121E-1,5.4401755E-1,1.2674217E-1,3.3227876E-1,3.8602844E-2,-1.4707528E-2,4.0015823E-1,5.815011E-1,6.891007E-1,1.0135545E0,9.415361E-1,1.5349168E0,1.451881E0,2.287927E0,1.0482832E-1,-1.7029475E-2,8.0870813E-1,4.4164932E-3,1.7669804E0,9.856631E-1,7.4694294E-1,2.3785343E0],"split_indices":[7,7,0,7,0,7,7,7,0,5,0,5,5,7,7,8,0,5,8,7,8,7,8,7,8,7,8,8,0,0,5,0,0,0,0,0,0,0,0,0,0,0,0,0,0,0,0,0,0,0,0,0,0,0,0,0,0,0,0,0,0,0,0],"split_type":[0,0,0,0,0,0,0,0,0,0,0,0,0,0,0,0,0,0,0,0,0,0,0,0,0,0,0,0,0,0,0,0,0,0,0,0,0,0,0,0,0,0,0,0,0,0,0,0,0,0,0,0,0,0,0,0,0,0,0,0,0,0,0],"sum_hessian":[4.747578E6,4.6716E6,7.5978E4,4.637901E6,3.3699E4,4.9567E4,2.6411E4,4.629935E6,7.966E3,2.2315E4,1.1384E4,2.7038E4,2.2529E4,2.3623E4,2.788E3,4.629121E6,8.14E2,5.518E3,2.448E3,1.1081E4,1.1234E4,9.67E2,1.0417E4,1.3262E4,1.3776E4,1.134E4,1.1189E4,1.8093E4,5.53E3,2.34E3,4.48E2,4.629E6,1.21E2,5.87E2,2.27E2,2.928E3,2.59E3,8.36E2,1.612E3,5.281E3,5.8E3,5.316E3,5.918E3,7.4E2,2.27E2,2.89E3,7.527E3,5.606E3,7.656E3,6.155E3,7.621E3,9.505E3,1.835E3,7.41E3,3.779E3,6.001E3,1.2092E4,2.244E3,3.286E3,7.61E2,1.579E3,3.5E1,4.13E2],"tree_param":{"num_deleted":"0","num_feature":"11","num_nodes":"63","size_leaf_vector":"1"}},{"base_weights":[1.7211107E-4,-2.198792E-1,1.4051738E1,-2.590589E-1,4.900303E0,2.1459953E1,1.3709825E-1,-2.5995627E-1,2.04388E1,7.3443055E0,6.512656E-1,3.850731E1,4.0879884E0,-8.695239E-1,1.3345582E1,-2.6329464E-1,1.4939822E0,1.5787088E1,3.1913528E1,1.3382309E1,1.403514E0,3.8974386E-1,2.0797123E1,2.7305782E1,5.189338E1,1.6601676E0,2.7117634E1,-1.3822545E0,3.6308107E0,1.0807942E1,2.9182714E1,-1.31721115E-2,3.4636945E-1,1.1340865E-1,1.6194185E-2,5.92224E-1,9.378004E-1,1.3861486E0,2.0459573E0,5.0979745E-1,8.2543147E-1,-2.8611568E-3,2.5369525E-1,-4.2286165E-2,1.1170401E-1,7.286188E-1,1.6068392E0,1.1255277E0,1.5462025E0,2.271826E0,3.2920659E0,1.7021379E-2,2.9560375E-1,1.6916258E0,4.077092E-1,-2.0199124E-2,-1.465568E-1,2.720182E-1,-1.4250083E-1,8.641972E-1,1.9877364E-1,2.0880215E0,3.8854104E-1],"categories":[],"categories_nodes":[],"categories_segments":[],"categories_sizes":[],"default_left":[0,0,0,0,0,0,0,0,0,0,0,0,0,0,0,0,0,0,0,0,0,0,0,0,0,0,0,0,0,0,0,0,0,0,0,0,0,0,0,0,0,0,0,0,0,0,0,0,0,0,0,0,0,0,0,0,0,0,0,0,0,0,0],"id":3,"left_children":[1,3,5,7,9,11,13,15,17,19,21,23,25,27,29,31,33,35,37,39,41,43,45,47,49,51,53,55,57,59,61,-1,-1,-1,-1,-1,-1,-1,-1,-1,-1,-1,-1,-1,-1,-1,-1,-1,-1,-1,-1,-1,-1,-1,-1,-1,-1,-1,-1,-1,-1,-1,-1],"loss_changes":[1.4670799E7,9.371385E5,7.541216E6,8.6112375E4,3.68391E5,1.4137856E7,3.3796812E5,2.7144469E4,1.0224977E4,8.0782125E5,6.824636E4,3.611496E6,1.3220465E6,5.4504887E4,7.202466E4,4.9120938E3,7.9773496E3,1.4751133E3,1.0166992E3,1.110925E5,6.0869125E4,2.9145396E4,1.1249055E4,2.26941E5,9.85506E5,1.2003732E5,2.8686988E5,3.2127691E4,2.834891E4,6.8647016E4,6.646503E4,0E0,0E0,0E0,0E0,0E0,0E0,0E0,0E0,0E0,0E0,0E0,0E0,0E0,0E0,0E0,0E0,0E0,0E0,0E0,0E0,0E0,0E0,0E0,0E0,0E0,0E0,0E0,0E0,0E0,0E0,0E0,0E0],"parents":[2147483647,0,0,1,1,2,2,3,3,4,4,5,5,6,6,7,7,8,8,9,9,10,10,11,11,12,12,13,13,14,14,15,15,16,16,17,17,18,18,19,19,20,20,21,21,22,22,23,23,24,24,25,25,26,26,27,27,28,28,29,29,30,30],"right_children":[2,4,6,8,10,12,14,16,18,20,22,24,26,28,30,32,34,36,38,40,42,44,46,48,50,52,54,56,58,60,62,-1,-1,-1,-1,-1,-1,-1,-1,-1,-1,-1,-1,-1,-1,-1,-1,-1,-1,-1,-1,-1,-1,-1,-1,-1,-1,-1,-1,-1,-1,-1,-1],"split_conditions":[3.615148E0,1.1971765E0,6.3536696E0,3.795226E0,2.1462185E0,6.236707E0,1.1357097E1,1.8844476E-1,7.816153E0,2.10497E0,7.0265985E0,7.3656416E0,1.0076072E1,8.678589E0,2.0324276E1,1.1539305E0,5.2201855E-1,5.6047945E0,1.2104469E1,2.446668E0,2.105245E0,2.105245E0,4.894215E0,4.8653126E0,1.1322601E1,4.9799695E0,1.5522544E0,8.526049E0,1.1413179E1,4.327333E0,1.6255859E0,-1.31721115E-2,3.4636945E-1,1.1340865E-1,1.6194185E-2,5.92224E-1,9.378004E-1,1.3861486E0,2.0459573E0,5.0979745E-1,8.2543147E-1,-2.8611568E-3,2.5369525E-1,-4.2286165E-2,1.1170401E-1,7.286188E-1,1.6068392E0,1.1255277E0,1.5462025E0,2.271826E0,3.2920659E0,1.7021379E-2,2.9560375E-1,1.6916258E0,4.077092E-1,-2.0199124E-2,-1.465568E-1,2.720182E-1,-1.4250083E-1,8.641972E-1,1.9877364E-1,2.0880215E0,3.8854104E-1],"split_indices":[8,8,1,0,1,0,9,8,1,0,0,8,9,9,9,0,1,0,0,8,9,9,10,8,8,9,2,8,8,2,6,0,0,0,0,0,0,0,0,0,0,0,0,0,0,0,0,0,0,0,0,0,0,0,0,0,0,0,0,0,0,0,0],"split_type":[0,0,0,0,0,0,0,0,0,0,0,0,0,0,0,0,0,0,0,0,0,0,0,0,0,0,0,0,0,0,0,0,0,0,0,0,0,0,0,0,0,0,0,0,0,0,0,0,0,0,0,0,0,0,0,0,0,0,0,0,0,0,0],"sum_hessian":[4.744658E6,4.671502E6,7.3156E4,4.636028E6,3.5474E4,4.7739E4,2.5417E4,4.635828E6,2E2,2.252E4,1.2954E4,2.4094E4,2.3645E4,2.3618E4,1.799E3,4.627022E6,8.806E3,1.44E2,5.6E1,1.1168E4,1.1352E4,1.2789E4,1.65E2,1.3119E4,1.0975E4,2.1391E4,2.254E3,2.1203E4,2.415E3,1.552E3,2.47E2,4.626928E6,9.4E1,5.299E3,3.507E3,6.4E1,8E1,4.1E1,1.5E1,5.533E3,5.635E3,8.121E3,3.231E3,7.659E3,5.13E3,1.08E2,5.7E1,5.645E3,7.474E3,7.505E3,3.47E3,1.6325E4,5.066E3,1.664E3,5.9E2,1.2996E4,8.207E3,1.888E3,5.27E2,7.96E2,7.56E2,1.55E2,9.2E1],"tree_param":{"num_deleted":"0","num_feature":"11","num_nodes":"63","size_leaf_vector":"1"}},{"base_weights":[-2.5682343E-4,-2.1553963E-1,1.3272444E1,-2.4762787E-1,4.210594E0,2.0216415E1,1.1161044E0,-2.5009707E-1,1.3992293E0,6.78E0,-5.1621854E-1,3.5181004E1,3.9131134E0,-4.0399626E-1,1.8320072E1,-2.503504E-1,3.7099895E-1,2.3877268E0,-3.613869E-1,1.2893501E1,1.6379514E-1,2.5516996E0,-7.74336E-1,2.430054E1,4.8940147E1,1.7645278E0,4.3603344E1,7.9115896E0,-1.1583774E0,4.584286E1,1.2207252E1,-1.2517939E-2,1.4295183E-2,4.054076E-2,-2.1211386E-2,2.3879193E-1,-9.161409E-3,3.7800938E-2,-2.4357593E-2,4.8467675E-1,7.9597944E-1,2.80216E-1,-1.450309E-3,3.2340306E-1,3.4954723E-2,1.147142E-3,-5.3143322E-2,9.528263E-1,1.4391942E0,2.1470184E0,3.1237516E0,2.2526413E-2,3.5090116E-1,2.779481E0,1.3535484E0,1.0177443E0,1.261289E-1,7.8045356E-1,-6.370074E-2,2.8900855E0,1.4012692E0,1.895275E0,1.2890604E-1],"categories":[],"categories_nodes":[],"categories_segments":[],"categories_sizes":[],"default_left":[0,0,0,0,0,0,0,0,0,0,0,0,0,0,0,0,0,0,0,0,0,0,0,0,0,0,0,0,0,0,0,0,0,0,0,0,0,0,0,0,0,0,0,0,0,0,0,0,0,0,0,0,0,0,0,0,0,0,0,0,0,0,0],"id":4,"left_children":[1,3,5,7,9,11,13,15,17,19,21,23,25,27,29,31,33,35,37,39,41,43,45,47,49,51,53,55,57,59,61,-1,-1,-1,-1,-1,-1,-1,-1,-1,-1,-1,-1,-1,-1,-1,-1,-1,-1,-1,-1,-1,-1,-1,-1,-1,-1,-1,-1,-1,-1,-1,-1],"loss_changes":[1.356181E7,6.633338E5,6.394704E6,1.8855844E4,4.0827325E5,1.1762738E7,7.2027925E5,7.285625E2,1.2082474E4,8.808783E5,9.377081E3,3.762268E6,1.9677948E6,1.5876303E5,3.756292E5,2.090625E1,6.6067883E2,2.7298105E4,3.5127277E2,1.09451875E5,1.0972078E4,6.6632563E3,2.5122837E3,3.29542E5,8.98706E5,1.511193E5,2.33317E5,1.4110377E5,4.5009234E4,8.488919E4,4.529865E5,0E0,0E0,0E0,0E0,0E0,0E0,0E0,0E0,0E0,0E0,0E0,0E0,0E0,0E0,0E0,0E0,0E0,0E0,0E0,0E0,0E0,0E0,0E0,0E0,0E0,0E0,0E0,0E0,0E0,0E0,0E0,0E0],"parents":[2147483647,0,0,1,1,2,2,3,3,4,4,5,5,6,6,7,7,8,8,9,9,10,10,11,11,12,12,13,13,14,14,15,15,16,16,17,17,18,18,19,19,20,20,21,21,22,22,23,23,24,24,25,25,26,26,27,27,28,28,29,29,30,30],"right_children":[2,4,6,8,10,12,14,16,18,20,22,24,26,28,30,32,34,36,38,40,42,44,46,48,50,52,54,56,58,60,62,-1,-1,-1,-1,-1,-1,-1,-1,-1,-1,-1,-1,-1,-1,-1,-1,-1,-1,-1,-1,-1,-1,-1,-1,-1,-1,-1,-1,-1,-1,-1,-1],"split_conditions":[3.604191E0,1.0803039E0,4.055482E0,3.5605794E-1,9.347851E-1,5.904122E0,1.4810251E1,1.0524861E-1,4.0136367E-1,1.5151118E0,2.3318412E0,6.8044543E0,1.4810251E1,7.1580353E0,1.9100328E-1,1.02297544E-1,1.9717854E-1,3.2380912E-1,8.839831E-1,2.5802283E0,2.2872524E0,1.9100328E-1,2.0300028E0,4.67654E0,1.1322601E1,7.8375916E0,1.8874964E1,3.2380912E-1,3.615148E0,1.922352E1,8.526049E0,-1.2517939E-2,1.4295183E-2,4.054076E-2,-2.1211386E-2,2.3879193E-1,-9.161409E-3,3.7800938E-2,-2.4357593E-2,4.8467675E-1,7.9597944E-1,2.80216E-1,-1.450309E-3,3.2340306E-1,3.4954723E-2,1.147142E-3,-5.3143322E-2,9.528263E-1,1.4391942E0,2.1470184E0,3.1237516E0,2.2526413E-2,3.5090116E-1,2.779481E0,1.3535484E0,1.0177443E0,1.261289E-1,7.8045356E-1,-6.370074E-2,2.8900855E0,1.4012692E0,1.895275E0,1.2890604E-1],"split_indices":[7,7,1,7,1,0,7,8,1,0,1,8,7,1,0,7,1,0,1,8,0,0,8,8,8,7,0,0,8,1,8,0,0,0,0,0,0,0,0,0,0,0,0,0,0,0,0,0,0,0,0,0,0,0,0,0,0,0,0,0,0,0,0],"split_type":[0,0,0,0,0,0,0,0,0,0,0,0,0,0,0,0,0,0,0,0,0,0,0,0,0,0,0,0,0,0,0,0,0,0,0,0,0,0,0,0,0,0,0,0,0,0,0,0,0,0,0,0,0,0,0,0,0,0,0,0,0,0,0],"sum_hessian":[4.74623E6,4.670476E6,7.5754E4,4.636861E6,3.3615E4,4.8213E4,2.7541E4,4.62992E6,6.941E3,2.1777E4,1.1838E4,2.5138E4,2.3075E4,2.5306E4,2.235E3,4.628033E6,1.887E3,4.445E3,2.496E3,1.1318E4,1.0459E4,9.18E2,1.092E4,1.4039E4,1.1099E4,2.1891E4,1.184E3,2.104E3,2.3202E4,4.05E2,1.83E3,4.627961E6,7.2E1,1.215E3,6.72E2,2.304E3,2.141E3,2.52E2,2.244E3,5.503E3,5.815E3,3.57E2,1.0102E4,2.94E2,6.24E2,2.902E3,8.018E3,6.473E3,7.566E3,7.693E3,3.406E3,1.7512E4,4.379E3,6.85E2,4.99E2,6.35E2,1.469E3,1.58E2,2.3044E4,2.41E2,1.64E2,4.98E2,1.332E3],"tree_param":{"num_deleted":"0","num_feature":"11","num_nodes":"63","size_leaf_vector":"1"}},{"base_weights":[-5.191522E-5,-1.9846284E-1,1.2663947E1,-2.3472936E-1,4.295592E0,1.9369383E1,1.0059384E-1,-2.355569E-1,1.9336294E1,6.476314E0,5.493619E-1,3.4794727E1,3.6159782E0,-6.6397387E-1,1.5289798E1,-2.3762965E-1,1.1659528E0,1.5497942E1,2.8894651E1,1.17425E1,1.257473E0,3.524223E-1,2.1041918E1,2.4735184E1,4.678001E1,1.4694937E0,2.4344002E1,-1.2676184E0,3.6480825E0,1.0210874E1,2.5497677E1,-1.188776E-2,2.972999E-1,8.85618E-2,1.2340129E-2,6.586671E-1,9.820548E-1,1.2420226E0,1.8612118E0,3.948556E-1,7.0888007E-1,-1.9153921E-3,2.2599828E-1,-3.67698E-2,9.7456895E-2,7.450547E-1,1.5042342E0,1.0225604E0,1.3963101E0,2.0263596E0,2.9145734E0,1.3426574E-2,2.6855388E-1,1.5208613E0,3.313832E-1,-1.7167827E-2,-1.3575819E-1,4.203364E-1,7.437514E-2,8.511022E-1,2.1099348E-1,1.5421985E0,2.8007576E-1],"categories":[],"categories_nodes":[],"categories_segments":[],"categories_sizes":[],"default_left":[0,0,0,0,0,0,0,0,0,0,0,0,0,0,0,0,0,0,0,0,0,0,0,0,0,0,0,0,0,0,0,0,0,0,0,0,0,0,0,0,0,0,0,0,0,0,0,0,0,0,0,0,0,0,0,0,0,0,0,0,0,0,0],"id":5,"left_children":[1,3,5,7,9,11,13,15,17,19,21,23,25,27,29,31,33,35,37,39,41,43,45,47,49,51,53,55,57,59,61,-1,-1,-1,-1,-1,-1,-1,-1,-1,-1,-1,-1,-1,-1,-1,-1,-1,-1,-1,-1,-1,-1,-1,-1,-1,-1,-1,-1,-1,-1,-1,-1],"loss_changes":[1.1924817E7,7.615679E5,6.167243E6,7.507603E4,3.0558425E5,1.159883E7,2.95879E5,1.3464984E4,6.7431094E3,6.4977494E5,5.554127E4,2.906546E6,1.0506964E6,6.3144363E4,6.3042406E4,3.5943281E3,3.807753E3,1.1088867E3,9.3266797E2,1.10082625E5,5.0205668E4,2.3682824E4,6.8261367E3,1.78701E5,7.89694E5,1.0027625E5,2.382295E5,2.8468469E4,3.061589E4,3.326646E4,4.2907344E4,0E0,0E0,0E0,0E0,0E0,0E0,0E0,0E0,0E0,0E0,0E0,0E0,0E0,0E0,0E0,0E0,0E0,0E0,0E0,0E0,0E0,0E0,0E0,0E0,0E0,0E0,0E0,0E0,0E0,0E0,0E0,0E0],"parents":[2147483647,0,0,1,1,2,2,3,3,4,4,5,5,6,6,7,7,8,8,9,9,10,10,11,11,12,12,13,13,14,14,15,15,16,16,17,17,18,18,19,19,20,20,21,21,22,22,23,23,24,24,25,25,26,26,27,27,28,28,29,29,30,30],"right_children":[2,4,6,8,10,12,14,16,18,20,22,24,26,28,30,32,34,36,38,40,42,44,46,48,50,52,54,56,58,60,62,-1,-1,-1,-1,-1,-1,-1,-1,-1,-1,-1,-1,-1,-1,-1,-1,-1,-1,-1,-1,-1,-1,-1,-1,-1,-1,-1,-1,-1,-1,-1,-1],"split_conditions":[3.615148E0,1.0195069E0,6.123851E0,4.055482E0,1.849222E0,6.236707E0,1.3004129E1,1.8844476E-1,7.816153E0,1.8133179E0,7.915226E0,7.3656416E0,1.0076072E1,8.678589E0,1.7044851E1,1.0324813E0,5.2201855E-1,6.123851E0,1.2104469E1,2.1743593E0,1.9377908E0,1.9766834E0,4.894215E0,4.8653126E0,9.865971E0,4.9799695E0,1.4663386E0,8.526049E0,1.1179864E1,1.5522544E0,4.5563016E0,-1.188776E-2,2.972999E-1,8.85618E-2,1.2340129E-2,6.586671E-1,9.820548E-1,1.2420226E0,1.8612118E0,3.948556E-1,7.0888007E-1,-1.9153921E-3,2.2599828E-1,-3.67698E-2,9.7456895E-2,7.450547E-1,1.5042342E0,1.0225604E0,1.3963101E0,2.0263596E0,2.9145734E0,1.3426574E-2,2.6855388E-1,1.5208613E0,3.313832E-1,-1.7167827E-2,-1.3575819E-1,4.203364E-1,7.437514E-2,8.511022E-1,2.1099348E-1,1.5421985E0,2.8007576E-1],"split_indices":[8,8,1,1,1,0,9,8,1,0,0,8,9,9,9,1,1,1,0,8,9,9,10,8,8,9,2,8,1,2,3,0,0,0,0,0,0,0,0,0,0,0,0,0,0,0,0,0,0,0,0,0,0,0,0,0,0,0,0,0,0,0,0],"split_type":[0,0,0,0,0,0,0,0,0,0,0,0,0,0,0,0,0,0,0,0,0,0,0,0,0,0,0,0,0,0,0,0,0,0,0,0,0,0,0,0,0,0,0,0,0,0,0,0,0,0,0,0,0,0,0,0,0,0,0,0,0,0,0],"sum_hessian":[4.745862E6,4.672655E6,7.3207E4,4.63525E6,3.7405E4,4.7731E4,2.5476E4,4.635055E6,1.95E2,2.3642E4,1.3763E4,2.4116E4,2.3615E4,2.4256E4,1.22E3,4.628211E6,6.844E3,1.41E2,5.4E1,1.1767E4,1.1875E4,1.3633E4,1.3E2,1.3113E4,1.1003E4,2.14E4,2.215E3,2.1278E4,2.978E3,8.16E2,4.04E2,4.628118E6,9.3E1,4.126E3,2.718E3,9.3E1,4.8E1,3.9E1,1.5E1,4.564E3,7.203E3,8.5E3,3.375E3,8.109E3,5.524E3,7.9E1,5.1E1,5.601E3,7.512E3,7.133E3,3.87E3,1.6364E4,5.036E3,1.649E3,5.66E2,1.2987E4,8.291E3,9.29E2,2.049E3,3.81E2,4.35E2,3.18E2,8.6E1],"tree_param":{"num_deleted":"0","num_feature":"11","num_nodes":"63","size_leaf_vector":"1"}},{"base_weights":[6.431969E-5,-1.9539568E-1,1.198328E1,-2.2236396E-1,3.9175503E0,1.8284967E1,1.1498892E0,-2.255657E-1,1.4676185E0,6.338167E0,-5.541734E-1,3.1827883E1,3.485048E0,-2.5802153E-1,1.7408756E1,-2.2594003E-1,3.9915314E-1,2.494137E0,-4.726705E-1,1.2081936E1,5.9053514E-2,2.1221402E0,-8.343337E-1,2.2228745E1,4.4100037E1,1.5486195E0,4.03382E1,7.397952E0,-1.0988266E0,4.3874107E1,1.1414721E1,-1.12987785E-2,-1.1204127E-2,4.028895E-2,-2.5954349E-2,2.4834895E-1,-1.0429908E-2,4.3076556E-2,-2.8502954E-2,5.102723E-1,7.727812E-1,2.7032995E-1,-8.825864E-3,2.6269358E-1,1.0895034E-2,-3.1068244E-3,-4.9724486E-2,8.979956E-1,1.3097292E0,1.9300016E0,2.8144107E0,1.688805E-2,3.1993136E-1,2.5663128E0,1.2375283E0,8.7477297E-1,1.2254625E-1,-6.525331E-3,-1.232182E-1,2.7312078E0,1.3300692E0,2.3939775E-1,1.7556263E0],"categories":[],"categories_nodes":[],"categories_segments":[],"categories_sizes":[],"default_left":[0,0,0,0,0,0,0,0,0,0,0,0,0,0,0,0,0,0,0,0,0,0,0,0,0,0,0,0,0,0,0,0,0,0,0,0,0,0,0,0,0,0,0,0,0,0,0,0,0,0,0,0,0,0,0,0,0,0,0,0,0,0,0],"id":6,"left_children":[1,3,5,7,9,11,13,15,17,19,21,23,25,27,29,31,33,35,37,39,41,43,45,47,49,51,53,55,57,59,61,-1,-1,-1,-1,-1,-1,-1,-1,-1,-1,-1,-1,-1,-1,-1,-1,-1,-1,-1,-1,-1,-1,-1,-1,-1,-1,-1,-1,-1,-1,-1,-1],"loss_changes":[1.1118709E7,5.1808794E5,5.201161E6,2.5109172E4,3.2935534E5,9.654396E6,6.4141125E5,1.0832344E3,1.7478719E4,7.119738E5,8.0148516E3,2.96198E6,1.6425111E6,1.6601016E5,3.5372956E5,2.5E-1,1.0361747E3,3.8357293E4,3.9510675E2,6.511175E4,1.1882685E4,6.0399473E3,1.1964653E3,2.38489E5,7.3776E5,1.2842734E5,1.9552775E5,1.2743625E5,3.0725434E4,7.5048125E4,2.8595844E5,0E0,0E0,0E0,0E0,0E0,0E0,0E0,0E0,0E0,0E0,0E0,0E0,0E0,0E0,0E0,0E0,0E0,0E0,0E0,0E0,0E0,0E0,0E0,0E0,0E0,0E0,0E0,0E0,0E0,0E0,0E0,0E0],"parents":[2147483647,0,0,1,1,2,2,3,3,4,4,5,5,6,6,7,7,8,8,9,9,10,10,11,11,12,12,13,13,14,14,15,15,16,16,17,17,18,18,19,19,20,20,21,21,22,22,23,23,24,24,25,25,26,26,27,27,28,28,29,29,30,30],"right_children":[2,4,6,8,10,12,14,16,18,20,22,24,26,28,30,32,34,36,38,40,42,44,46,48,50,52,54,56,58,60,62,-1,-1,-1,-1,-1,-1,-1,-1,-1,-1,-1,-1,-1,-1,-1,-1,-1,-1,-1,-1,-1,-1,-1,-1,-1,-1,-1,-1,-1,-1,-1,-1],"split_conditions":[3.3168564E0,1.2918297E0,3.53839E0,4.9139684E-1,1.234979E0,5.904122E0,1.4810251E1,1.02297544E-1,7.2310996E-1,1.752165E0,2.8144608E0,7.3395443E0,1.4810251E1,6.6011667E0,1.3047051E0,-8.528457E-2,3.2380912E-1,5.162337E-1,1.1252928E0,2.5854585E0,2.6257772E0,3.2380912E-1,3.53839E0,3.9164243E0,8.107349E0,7.8375916E0,1.8874964E1,1.0112747E0,1.4397326E1,1.922352E1,2.041328E1,-1.12987785E-2,-1.1204127E-2,4.028895E-2,-2.5954349E-2,2.4834895E-1,-1.0429908E-2,4.3076556E-2,-2.8502954E-2,5.102723E-1,7.727812E-1,2.7032995E-1,-8.825864E-3,2.6269358E-1,1.0895034E-2,-3.1068244E-3,-4.9724486E-2,8.979956E-1,1.3097292E0,1.9300016E0,2.8144107E0,1.688805E-2,3.1993136E-1,2.5663128E0,1.2375283E0,8.7477297E-1,1.2254625E-1,-6.525331E-3,-1.232182E-1,2.7312078E0,1.3300692E0,2.3939775E-1,1.7556263E0],"split_indices":[7,7,1,7,1,0,7,7,1,0,1,7,7,1,0,9,0,0,1,7,0,0,1,10,10,7,0,0,1,1,7,0,0,0,0,0,0,0,0,0,0,0,0,0,0,0,0,0,0,0,0,0,0,0,0,0,0,0,0,0,0,0,0],"split_type":[0,0,0,0,0,0,0,0,0,0,0,0,0,0,0,0,0,0,0,0,0,0,0,0,0,0,0,0,0,0,0,0,0,0,0,0,0,0,0,0,0,0,0,0,0,0,0,0,0,0,0,0,0,0,0,0,0,0,0,0,0,0,0],"sum_hessian":[4.74704E6,4.670854E6,7.6186E4,4.640428E6,3.0426E4,4.8167E4,2.8019E4,4.631654E6,8.774E3,1.974E4,1.0686E4,2.5151E4,2.3016E4,2.5787E4,2.232E3,4.628881E6,2.773E3,5.738E3,3.036E3,1.0309E4,9.431E3,1.012E3,9.674E3,1.4114E4,1.1037E4,2.1868E4,1.148E3,2.551E3,2.3236E4,4.11E2,1.821E3,4.541871E6,8.701E4,1.922E3,8.51E2,2.996E3,2.742E3,2.06E2,2.83E3,6.627E3,3.682E3,3.97E2,9.034E3,3.82E2,6.3E2,1.662E3,8.012E3,6.8E3,7.314E3,7.608E3,3.429E3,1.75E4,4.368E3,6.72E2,4.76E2,8.38E2,1.713E3,1.3596E4,9.64E3,2.52E2,1.59E2,1.424E3,3.97E2],"tree_param":{"num_deleted":"0","num_feature":"11","num_nodes":"63","size_leaf_vector":"1"}},{"base_weights":[-2.4907466E-4,-1.6875203E-1,1.2512431E1,-2.104579E-1,4.4602895E0,1.837398E1,-1.8782476E-2,-2.1428527E-1,1.4684671E0,7.1985793E0,-7.177067E-1,3.375798E1,5.681153E0,-1.4514326E0,1.3657549E1,-2.1464641E-1,3.88123E-1,2.5227048E0,-4.3481654E-1,1.39127445E1,5.739729E-2,2.4930446E0,-9.5172113E-1,2.9167505E1,5.1655098E1,3.359119E0,3.702225E1,-4.4574472E-1,-2.3307807E0,3.790626E1,7.6538396E0,-1.0733849E-2,-1.0652507E-2,4.2351224E-2,-2.213757E-2,2.4704039E-1,-1.6824936E-2,4.133735E-2,-2.7734086E-2,5.1193416E-1,8.376776E-1,3.0674413E-1,-1.25444485E-2,3.2885763E-1,4.038952E-3,-1.845036E-2,-5.9868105E-2,1.1662858E0,1.7776768E0,2.2928095E0,2.9854732E0,6.720094E-1,4.7262006E-2,2.5357084E0,9.573526E-1,-8.00108E-2,4.0189224E-1,-9.554022E-2,-1.6856532E-1,2.4217489E0,1.2010554E0,7.221692E-2,1.4848484E0],"categories":[],"categories_nodes":[],"categories_segments":[],"categories_sizes":[],"default_left":[0,0,0,0,0,0,0,0,0,0,0,0,0,0,0,0,0,0,0,0,0,0,0,0,0,0,0,0,0,0,0,0,0,0,0,0,0,0,0,0,0,0,0,0,0,0,0,0,0,0,0,0,0,0,0,0,0,0,0,0,0,0,0],"id":7,"left_children":[1,3,5,7,9,11,13,15,17,19,21,23,25,27,29,31,33,35,37,39,41,43,45,47,49,51,53,55,57,59,61,-1,-1,-1,-1,-1,-1,-1,-1,-1,-1,-1,-1,-1,-1,-1,-1,-1,-1,-1,-1,-1,-1,-1,-1,-1,-1,-1,-1,-1,-1,-1,-1],"loss_changes":[1.0007351E7,9.041505E5,4.632491E6,2.9825734E4,5.9293656E5,8.390214E6,3.938471E5,1.0076094E3,2.1183857E4,1.3114955E6,1.0871576E4,1.594378E6,1.7133652E6,1.6089703E4,2.7718956E5,1.875E-1,1.0584531E3,4.6974348E4,5.6964136E2,1.4697375E5,2.4838047E4,9.6839375E3,1.9296348E3,5.75995E5,1.82407E5,5.334478E5,3.96496E5,8.315465E4,4.2354805E3,5.4097438E4,2.0924175E5,0E0,0E0,0E0,0E0,0E0,0E0,0E0,0E0,0E0,0E0,0E0,0E0,0E0,0E0,0E0,0E0,0E0,0E0,0E0,0E0,0E0,0E0,0E0,0E0,0E0,0E0,0E0,0E0,0E0,0E0,0E0,0E0],"parents":[2147483647,0,0,1,1,2,2,3,3,4,4,5,5,6,6,7,7,8,8,9,9,10,10,11,11,12,12,13,13,14,14,15,15,16,16,17,17,18,18,19,19,20,20,21,21,22,22,23,23,24,24,25,25,26,26,27,27,28,28,29,29,30,30],"right_children":[2,4,6,8,10,12,14,16,18,20,22,24,26,28,30,32,34,36,38,40,42,44,46,48,50,52,54,56,58,60,62,-1,-1,-1,-1,-1,-1,-1,-1,-1,-1,-1,-1,-1,-1,-1,-1,-1,-1,-1,-1,-1,-1,-1,-1,-1,-1,-1,-1,-1,-1,-1,-1],"split_conditions":[3.8007886E0,1.4416183E0,7.816153E0,4.9139684E-1,1.4428055E0,1.4142151E0,1.4810251E1,1.02297544E-1,5.768616E-1,1.4142151E0,2.966867E0,8.406788E0,1.4810251E1,1.4397326E1,1.9100328E-1,-8.528457E-2,1.9717854E-1,9.331536E-1,1.1252928E0,2.8571205E0,2.9108505E0,3.9151406E-1,4.7449384E0,6.0514917E0,1.1074898E1,7.500533E0,1.8874964E1,8.406788E0,1.922352E1,1.922352E1,2.041328E1,-1.0733849E-2,-1.0652507E-2,4.2351224E-2,-2.213757E-2,2.4704039E-1,-1.6824936E-2,4.133735E-2,-2.7734086E-2,5.1193416E-1,8.376776E-1,3.0674413E-1,-1.25444485E-2,3.2885763E-1,4.038952E-3,-1.845036E-2,-5.9868105E-2,1.1662858E0,1.7776768E0,2.2928095E0,2.9854732E0,6.720094E-1,4.7262006E-2,2.5357084E0,9.573526E-1,-8.00108E-2,4.0189224E-1,-9.554022E-2,-1.6856532E-1,2.4217489E0,1.2010554E0,7.221692E-2,1.4848484E0],"split_indices":[7,7,1,7,1,0,7,7,1,0,1,7,7,1,0,9,1,0,1,7,0,0,1,7,7,0,0,7,1,1,7,0,0,0,0,0,0,0,0,0,0,0,0,0,0,0,0,0,0,0,0,0,0,0,0,0,0,0,0,0,0,0,0],"split_type":[0,0,0,0,0,0,0,0,0,0,0,0,0,0,0,0,0,0,0,0,0,0,0,0,0,0,0,0,0,0,0,0,0,0,0,0,0,0,0,0,0,0,0,0,0,0,0,0,0,0,0,0,0,0,0,0,0,0,0,0,0,0,0],"sum_hessian":[4.746365E6,4.683298E6,6.3067E4,4.641481E6,4.1817E4,4.2968E4,2.0099E4,4.630925E6,1.0556E4,2.7352E4,1.4465E4,1.9424E4,2.3544E4,1.8194E4,1.905E3,4.628151E6,2.774E3,6.793E3,3.763E3,1.4097E4,1.3255E4,9.82E2,1.3483E4,1.5461E4,3.963E3,2.1921E4,1.623E3,8.488E3,9.706E3,3.77E2,1.528E3,4.541097E6,8.7054E4,1.787E3,9.87E2,3.68E3,3.113E3,3.26E2,3.437E3,6.149E3,7.948E3,6.39E2,1.2616E4,3.64E2,6.18E2,3.999E3,9.484E3,8.077E3,7.384E3,2.308E3,1.655E3,4.234E3,1.7687E4,9.18E2,7.05E2,7.472E3,1.016E3,6.917E3,2.789E3,2.13E2,1.64E2,1.193E3,3.35E2],"tree_param":{"num_deleted":"0","num_feature":"11","num_nodes":"63","size_leaf_vector":"1"}},{"base_weights":[5.958256E-4,-1.5944341E-1,1.1976258E1,-1.9975038E-1,4.280826E0,1.7608648E1,-6.217795E-2,-2.0356789E-1,1.4205043E0,6.914603E0,-6.4342856E-1,1.4431044E1,2.8650724E1,-8.1632954E-1,2.2848238E1,-2.0391315E-1,3.6747712E-1,2.4191163E0,-4.1065285E-1,4.9659996E0,8.237158E0,2.5828278E0,-9.0122557E-1,1.1406512E1,1.7482403E1,2.4715897E1,3.5056454E1,-1.3889827E0,7.696091E0,1.5208597E1,3.2569183E1,-1.0197177E-2,-1.0116427E-2,3.8839217E-2,-2.0808427E-2,8.367458E-2,1.3849573E-1,4.0579133E-2,-2.507707E-2,2.0393181E-1,2.736163E-1,3.5579786E-1,4.5239422E-1,6.855248E-2,1.7747895E-1,-1.580014E-2,-5.705286E-2,6.1502856E-1,1.8427698E-1,9.1299564E-1,3.7680933E-1,1.1210818E0,1.4062794E0,1.6633013E0,2.4722297E0,-2.0883491E-2,-1.1095741E-1,8.545392E-1,2.1432541E-1,1.4623873E0,4.976425E-1,1.9334999E0,6.34397E-1],"categories":[],"categories_nodes":[],"categories_segments":[],"categories_sizes":[],"default_left":[0,0,0,0,0,0,0,0,0,0,0,0,0,0,0,0,0,0,0,0,0,0,0,0,0,0,0,0,0,0,0,0,0,0,0,0,0,0,0,0,0,0,0,0,0,0,0,0,0,0,0,0,0,0,0,0,0,0,0,0,0,0,0],"id":8,"left_children":[1,3,5,7,9,11,13,15,17,19,21,23,25,27,29,31,33,35,37,39,41,43,45,47,49,51,53,55,57,59,61,-1,-1,-1,-1,-1,-1,-1,-1,-1,-1,-1,-1,-1,-1,-1,-1,-1,-1,-1,-1,-1,-1,-1,-1,-1,-1,-1,-1,-1,-1,-1,-1],"loss_changes":[9.09872E6,8.384535E5,4.245012E6,2.8716547E4,5.465864E5,1.496097E6,3.4481697E5,9.132344E2,1.995667E4,7.0722E4,1.2217789E4,3.05481E5,2.39341E5,9.419407E4,4.6736906E4,1.875E-1,8.9810767E2,1.8425312E3,4.2831476E2,4.9666562E3,1.4802125E4,1.268541E3,1.9086055E3,1.1480025E5,1.273535E5,4.5578E4,9.17125E4,1.4597238E4,3.8941695E4,2.6124367E4,3.334972E4,0E0,0E0,0E0,0E0,0E0,0E0,0E0,0E0,0E0,0E0,0E0,0E0,0E0,0E0,0E0,0E0,0E0,0E0,0E0,0E0,0E0,0E0,0E0,0E0,0E0,0E0,0E0,0E0,0E0,0E0,0E0,0E0],"parents":[2147483647,0,0,1,1,2,2,3,3,4,4,5,5,6,6,7,7,8,8,9,9,10,10,11,11,12,12,13,13,14,14,15,15,16,16,17,17,18,18,19,19,20,20,21,21,22,22,23,23,24,24,25,25,26,26,27,27,28,28,29,29,30,30],"right_children":[2,4,6,8,10,12,14,16,18,20,22,24,26,28,30,32,34,36,38,40,42,44,46,48,50,52,54,56,58,60,62,-1,-1,-1,-1,-1,-1,-1,-1,-1,-1,-1,-1,-1,-1,-1,-1,-1,-1,-1,-1,-1,-1,-1,-1,-1,-1,-1,-1,-1,-1,-1,-1],"split_conditions":[4.137813E0,1.5289949E0,8.19222E0,4.9139684E-1,1.4428055E0,9.207221E0,1.7798532E1,1.02297544E-1,6.807749E-1,2.5854585E0,3.136207E0,6.2723007E0,1.1821968E1,1.4810251E1,1.6908209E1,-8.528457E-2,1.9717854E-1,8.649322E-1,1.1252928E0,2.0033255E0,6.863875E-1,2.3590734E0,4.7449384E0,1.9579812E0,3.7796996E0,1.2025318E0,1.7798532E1,1.4397326E1,1.4397326E1,9.039306E0,2.3084476E1,-1.0197177E-2,-1.0116427E-2,3.8839217E-2,-2.0808427E-2,8.367458E-2,1.3849573E-1,4.0579133E-2,-2.507707E-2,2.0393181E-1,2.736163E-1,3.5579786E-1,4.5239422E-1,6.855248E-2,1.7747895E-1,-1.580014E-2,-5.705286E-2,6.1502856E-1,1.8427698E-1,9.1299564E-1,3.7680933E-1,1.1210818E0,1.4062794E0,1.6633013E0,2.4722297E0,-2.0883491E-2,-1.1095741E-1,8.545392E-1,2.1432541E-1,1.4623873E0,4.976425E-1,1.9334999E0,6.34397E-1],"split_indices":[7,7,1,7,1,7,7,7,1,7,1,7,7,7,9,9,1,7,1,7,5,7,1,1,1,5,7,1,1,10,1,0,0,0,0,0,0,0,0,0,0,0,0,0,0,0,0,0,0,0,0,0,0,0,0,0,0,0,0,0,0,0,0],"split_type":[0,0,0,0,0,0,0,0,0,0,0,0,0,0,0,0,0,0,0,0,0,0,0,0,0,0,0,0,0,0,0,0,0,0,0,0,0,0,0,0,0,0,0,0,0,0,0,0,0,0,0,0,0,0,0,0,0,0,0,0,0,0,0],"sum_hessian":[4.747382E6,4.684777E6,6.2605E4,4.642634E6,4.2143E4,4.265E4,1.9955E4,4.631722E6,1.0912E4,2.7457E4,1.4686E4,3.3121E4,9.529E3,1.932E4,6.35E2,4.628924E6,2.798E3,7.061E3,3.851E3,1.1103E4,1.6354E4,1.086E3,1.36E4,1.6636E4,1.6485E4,5.906E3,3.623E3,1.8103E4,1.217E3,3.57E2,2.78E2,4.541737E6,8.7187E4,1.838E3,9.6E2,2.261E3,4.8E3,2.66E2,3.585E3,4.037E3,7.066E3,6.867E3,9.487E3,4.83E2,6.03E2,3.954E3,9.646E3,1.4909E4,1.727E3,1.5289E4,1.196E3,3.535E3,2.371E3,3.225E3,3.98E2,8.343E3,9.76E3,3.23E2,8.94E2,9.6E1,2.61E2,2.12E2,6.6E1],"tree_param":{"num_deleted":"0","num_feature":"11","num_nodes":"63","size_leaf_vector":"1"}},{"base_weights":[-5.0417194E-4,-1.6212021E-1,1.0341424E1,-1.9088152E-1,3.4938734E0,1.5837533E1,3.389114E-2,-1.9156417E-1,1.6827263E1,5.2899685E0,4.235508E-1,2.910159E1,2.3271754E0,-6.496696E-1,1.08334055E1,-1.9345842E-1,1.077973E0,1.3438123E1,2.507854E1,9.936655E0,7.312168E-1,2.4383125E-1,2.1101593E1,2.0553186E1,3.889771E1,5.017941E-1,1.984389E1,-1.224851E0,1.7591138E0,9.340342E0,3.2280865E1,-9.677819E-3,2.4517882E-1,8.28891E-2,8.658288E-3,5.049305E-1,7.622223E-1,1.0886683E0,1.5147816E0,3.3406448E-1,5.9325063E-1,-1.6018724E-2,1.6870622E-1,6.9689746E-3,6.406905E-1,6.4440477E-1,1.2794573E0,8.578311E-1,1.1577523E0,1.7946873E0,2.8014429E0,1.0024854E-1,-8.578446E-2,1.2534535E0,2.800358E-1,-2.9118195E-2,-1.0592625E-1,2.0498443E-1,-1.08641125E-1,6.5687054E-1,9.2301354E-2,8.889505E-1,3.152503E0],"categories":[],"categories_nodes":[],"categories_segments":[],"categories_sizes":[],"default_left":[0,0,0,0,0,0,0,0,0,0,0,0,0,0,0,0,0,0,0,0,0,0,0,0,0,0,0,0,0,0,0,0,0,0,0,0,0,0,0,0,0,0,0,0,0,0,0,0,0,0,0,0,0,0,0,0,0,0,0,0,0,0,0],"id":9,"left_children":[1,3,5,7,9,11,13,15,17,19,21,23,25,27,29,31,33,35,37,39,41,43,45,47,49,51,53,55,57,59,61,-1,-1,-1,-1,-1,-1,-1,-1,-1,-1,-1,-1,-1,-1,-1,-1,-1,-1,-1,-1,-1,-1,-1,-1,-1,-1,-1,-1,-1,-1,-1,-1],"loss_changes":[7.9330215E6,4.9139772E5,4.137246E6,5.3870953E4,2.0115347E5,8.535687E6,1.875056E5,1.1150344E4,4.8644336E3,4.8750038E5,5.003043E4,2.01192E6,7.5452856E5,3.309868E4,4.8116375E4,2.3122188E3,3.6237568E3,6.5437305E2,2.5426172E2,7.14655E4,3.2290506E4,1.7524871E4,3.945789E3,1.130475E5,5.74304E5,7.124207E4,1.6559994E5,1.1071135E4,4.2388688E4,4.02416E4,4.260765E4,0E0,0E0,0E0,0E0,0E0,0E0,0E0,0E0,0E0,0E0,0E0,0E0,0E0,0E0,0E0,0E0,0E0,0E0,0E0,0E0,0E0,0E0,0E0,0E0,0E0,0E0,0E0,0E0,0E0,0E0,0E0,0E0],"parents":[2147483647,0,0,1,1,2,2,3,3,4,4,5,5,6,6,7,7,8,8,9,9,10,10,11,11,12,12,13,13,14,14,15,15,16,16,17,17,18,18,19,19,20,20,21,21,22,22,23,23,24,24,25,25,26,26,27,27,28,28,29,29,30,30],"right_children":[2,4,6,8,10,12,14,16,18,20,22,24,26,28,30,32,34,36,38,40,42,44,46,48,50,52,54,56,58,60,62,-1,-1,-1,-1,-1,-1,-1,-1,-1,-1,-1,-1,-1,-1,-1,-1,-1,-1,-1,-1,-1,-1,-1,-1,-1,-1,-1,-1,-1,-1,-1,-1],"split_conditions":[3.615148E0,1.1019963E0,6.3536696E0,4.055482E0,1.9871131E0,6.236707E0,1.2441042E1,3.328378E-1,8.19222E0,1.9487277E0,8.19222E0,6.8044543E0,1.0076072E1,7.2811065E0,2.801043E1,1.3666025E0,6.807749E-1,5.333975E0,1.0257971E1,2.1743593E0,2.0239103E0,7.0265985E0,9.435558E0,4.8653126E0,1.2356295E1,8.526049E0,4.8491648E-1,6.79377E0,1.922352E1,1.118341E1,1.2335775E0,-9.677819E-3,2.4517882E-1,8.28891E-2,8.658288E-3,5.049305E-1,7.622223E-1,1.0886683E0,1.5147816E0,3.3406448E-1,5.9325063E-1,-1.6018724E-2,1.6870622E-1,6.9689746E-3,6.406905E-1,6.4440477E-1,1.2794573E0,8.578311E-1,1.1577523E0,1.7946873E0,2.8014429E0,1.0024854E-1,-8.578446E-2,1.2534535E0,2.800358E-1,-2.9118195E-2,-1.0592625E-1,2.0498443E-1,-1.08641125E-1,6.5687054E-1,9.2301354E-2,8.889505E-1,3.152503E0],"split_indices":[8,8,1,1,1,0,9,8,1,0,1,8,9,9,9,1,1,0,0,8,9,0,9,8,8,8,2,8,1,2,4,0,0,0,0,0,0,0,0,0,0,0,0,0,0,0,0,0,0,0,0,0,0,0,0,0,0,0,0,0,0,0,0],"split_type":[0,0,0,0,0,0,0,0,0,0,0,0,0,0,0,0,0,0,0,0,0,0,0,0,0,0,0,0,0,0,0,0,0,0,0,0,0,0,0,0,0,0,0,0,0,0,0,0,0,0,0,0,0,0,0,0,0,0,0,0,0,0,0],"sum_hessian":[4.746271E6,4.673242E6,7.3029E4,4.636766E6,3.6476E4,4.7631E4,2.5398E4,4.636581E6,1.85E2,2.3013E4,1.3463E4,2.4034E4,2.3597E4,2.3887E4,1.511E3,4.629674E6,6.907E3,1.33E2,5.2E1,1.1396E4,1.1617E4,1.3348E4,1.15E2,1.2836E4,1.1198E4,2.1371E4,2.226E3,1.9283E4,4.604E3,1.414E3,9.7E1,4.629586E6,8.8E1,4.209E3,2.698E3,4.9E1,8.4E1,3.5E1,1.7E1,4.241E3,7.155E3,8.311E3,3.306E3,1.3239E4,1.09E2,4.2E1,7.3E1,5.571E3,7.265E3,9.53E3,1.668E3,1.2737E4,8.634E3,1.628E3,5.98E2,1.1219E4,8.064E3,2.886E3,1.718E3,9.38E2,4.76E2,6.7E1,3E1],"tree_param":{"num_deleted":"0","num_feature":"11","num_nodes":"63","size_leaf_vector":"1"}},{"base_weights":[-7.569103E-5,-1.4186023E-1,1.1021197E1,-1.8036357E-1,3.8875835E0,1.5471048E1,1.8326008E0,-1.8365975E-1,1.2861699E0,5.9288306E0,-6.009088E-1,1.2895738E1,2.5419008E1,-3.2869536E-1,1.649415E1,-1.8404444E-1,3.5298347E-1,2.0641603E0,-4.7684908E-1,4.2096386E0,7.6185737E0,1.9562191E-1,-9.512406E-1,9.84167E0,1.5963611E1,1.8596489E1,3.1619741E1,1.4604359E0,-1.9134026E0,1.1359167E1,2.6387995E1,-9.202621E-3,1.2887405E-2,3.9210357E-2,-3.057597E-2,6.746674E-2,1.415239E-1,2.7234871E-2,-2.5693273E-2,1.438163E-1,2.592223E-1,3.1312662E-1,5.092295E-1,-3.1316604E-2,1.2436112E-1,-2.9284706E-2,-6.0835686E-2,3.723203E-1,6.080269E-1,6.0388535E-1,9.838573E-1,8.5845155E-1,1.4559318E0,1.3780841E0,1.9415439E0,-4.5288913E-2,5.859405E-1,-5.9742074E-2,-1.7098005E-1,8.1893826E-1,2.0373802E-1,1.8402146E0,1.0539716E0],"categories":[],"categories_nodes":[],"categories_segments":[],"categories_sizes":[],"default_left":[0,0,0,0,0,0,0,0,0,0,0,0,0,0,0,0,0,0,0,0,0,0,0,0,0,0,0,0,0,0,0,0,0,0,0,0,0,0,0,0,0,0,0,0,0,0,0,0,0,0,0,0,0,0,0,0,0,0,0,0,0,0,0],"id":10,"left_children":[1,3,5,7,9,11,13,15,17,19,21,23,25,27,29,31,33,35,37,39,41,43,45,47,49,51,53,55,57,59,61,-1,-1,-1,-1,-1,-1,-1,-1,-1,-1,-1,-1,-1,-1,-1,-1,-1,-1,-1,-1,-1,-1,-1,-1,-1,-1,-1,-1,-1,-1,-1,-1],"loss_changes":[7.4193905E6,7.2727725E5,2.4657165E6,2.2445766E4,4.0651775E5,1.040549E6,6.2352925E5,9.5646875E2,1.428358E4,8.8567375E4,3.8708896E3,3.02253E5,3.52825E5,4.8627312E4,1.2813456E5,1.6359375E1,1.3809061E3,3.953914E3,1.2086853E2,1.9636875E4,5.3452812E4,7.9842124E3,9.3419727E2,8.97615E4,2.320925E5,5.9279375E4,1.269565E5,1.9555798E5,9.839391E3,6.0850188E4,4.694425E4,0E0,0E0,0E0,0E0,0E0,0E0,0E0,0E0,0E0,0E0,0E0,0E0,0E0,0E0,0E0,0E0,0E0,0E0,0E0,0E0,0E0,0E0,0E0,0E0,0E0,0E0,0E0,0E0,0E0,0E0,0E0,0E0],"parents":[2147483647,0,0,1,1,2,2,3,3,4,4,5,5,6,6,7,7,8,8,9,9,10,10,11,11,12,12,13,13,14,14,15,15,16,16,17,17,18,18,19,19,20,20,21,21,22,22,23,23,24,24,25,25,26,26,27,27,28,28,29,29,30,30],"right_children":[2,4,6,8,10,12,14,16,18,20,22,24,26,28,30,32,34,36,38,40,42,44,46,48,50,52,54,56,58,60,62,-1,-1,-1,-1,-1,-1,-1,-1,-1,-1,-1,-1,-1,-1,-1,-1,-1,-1,-1,-1,-1,-1,-1,-1,-1,-1,-1,-1,-1,-1,-1,-1],"split_conditions":[4.5380297E0,1.5289949E0,9.396272E0,5.2416307E-1,2.9108505E0,9.82978E0,1.4810251E1,1.0524861E-1,1.0112747E0,6.863875E-1,2.7517858E0,6.863875E-1,6.863875E-1,8.526049E0,1.7798532E1,1.02297544E-1,3.2380912E-1,6.863875E-1,6.520538E-1,2.8571205E0,3.615148E0,2.3590734E0,2.439404E0,7.3395443E0,5.865444E0,1.4810251E1,1.1821968E1,8.584662E0,7.681973E0,1.6979225E1,8.526049E0,-9.202621E-3,1.2887405E-2,3.9210357E-2,-3.057597E-2,6.746674E-2,1.415239E-1,2.7234871E-2,-2.5693273E-2,1.438163E-1,2.592223E-1,3.1312662E-1,5.092295E-1,-3.1316604E-2,1.2436112E-1,-2.9284706E-2,-6.0835686E-2,3.723203E-1,6.080269E-1,6.0388535E-1,9.838573E-1,8.5845155E-1,1.4559318E0,1.3780841E0,1.9415439E0,-4.5288913E-2,5.859405E-1,-5.9742074E-2,-1.7098005E-1,8.1893826E-1,2.0373802E-1,1.8402146E0,1.0539716E0],"split_indices":[7,7,0,7,0,7,7,8,0,5,8,5,5,8,7,7,0,5,8,7,8,7,10,7,8,7,7,7,10,0,8,0,0,0,0,0,0,0,0,0,0,0,0,0,0,0,0,0,0,0,0,0,0,0,0,0,0,0,0,0,0,0,0],"split_type":[0,0,0,0,0,0,0,0,0,0,0,0,0,0,0,0,0,0,0,0,0,0,0,0,0,0,0,0,0,0,0,0,0,0,0,0,0,0,0,0,0,0,0,0,0,0,0,0,0,0,0,0,0,0,0,0,0,0,0,0,0,0,0],"sum_hessian":[4.747964E6,4.68766E6,6.0304E4,4.643292E6,4.4368E4,4.0628E4,1.9676E4,4.63288E6,1.0412E4,3.0498E4,1.387E4,3.2275E4,8.353E3,1.7149E4,2.527E3,4.629562E6,3.318E3,7.224E3,3.188E3,1.5119E4,1.5379E4,4.237E3,9.633E3,1.6176E4,1.6099E4,3.979E3,4.374E3,8.055E3,9.094E3,1.665E3,8.62E2,4.629479E6,8.3E1,2.293E3,1.025E3,3.739E3,3.485E3,1.11E2,3.077E3,6.387E3,8.732E3,1.0064E4,5.315E3,3.119E3,1.118E3,4.054E3,5.579E3,7.959E3,8.217E3,7.869E3,8.23E3,3.506E3,4.73E2,2.802E3,1.572E3,6.546E3,1.509E3,6.158E3,2.936E3,9.85E2,6.8E2,2.89E2,5.73E2],"tree_param":{"num_deleted":"0","num_feature":"11","num_nodes":"63","size_leaf_vector":"1"}},{"base_weights":[1.0760227E-5,-1.3773368E-1,1.0262312E1,-1.7130488E-1,3.605699E0,1.4338697E1,2.0157464E0,-1.7462555E-1,1.1837488E0,5.5003595E0,-6.2483144E-1,1.1987221E1,2.4067661E1,-7.964869E-2,1.680451E1,-1.7484124E-1,2.4647373E-1,1.900554E0,-4.4620267E-1,3.955288E0,7.0311418E0,3.3731952E-1,-8.571009E-1,9.109185E0,1.4828763E1,1.7704082E1,2.984281E1,1.6287999E0,-1.7854648E0,1.1947252E1,2.6147518E1,-8.742402E-3,1.156364E-2,3.1972583E-2,-2.8259337E-2,6.1679583E-2,1.3092548E-1,-3.3958998E-2,-1.5627673E-2,1.387769E-1,2.451123E-1,2.5799924E-1,4.284819E-1,-3.1352486E-2,1.2931055E-1,-2.7832944E-2,-5.8199625E-2,3.4896103E-1,5.726794E-1,5.6590784E-1,9.293081E-1,7.8152394E-1,1.2157153E0,1.2914581E0,1.8627781E0,-5.0888654E-2,5.2487916E-1,-5.756346E-2,-1.5865085E-1,8.434747E-1,2.1868475E-1,1.725199E0,1.0292495E0],"categories":[],"categories_nodes":[],"categories_segments":[],"categories_sizes":[],"default_left":[0,0,0,0,0,0,0,0,0,0,0,0,0,0,0,0,0,0,0,0,0,0,0,0,0,0,0,0,0,0,0,0,0,0,0,0,0,0,0,0,0,0,0,0,0,0,0,0,0,0,0,0,0,0,0,0,0,0,0,0,0,0,0],"id":11,"left_children":[1,3,5,7,9,11,13,15,17,19,21,23,25,27,29,31,33,35,37,39,41,43,45,47,49,51,53,55,57,59,61,-1,-1,-1,-1,-1,-1,-1,-1,-1,-1,-1,-1,-1,-1,-1,-1,-1,-1,-1,-1,-1,-1,-1,-1,-1,-1,-1,-1,-1,-1,-1,-1],"loss_changes":[6.709587E6,5.886049E5,2.113286E6,2.0887906E4,3.336853E5,9.62165E5,6.4446506E5,4.20625E2,1.3259372E4,6.797781E4,2.8782432E3,2.769625E5,3.003855E5,5.30927E4,1.16817E5,1.2828125E1,7.566266E2,3.7710605E3,1.0774048E2,1.5975391E4,4.1531E4,5.4343696E3,9.5586816E2,8.39905E4,2.246655E5,5.3049875E4,1.2670425E5,2.1365175E5,8.0182363E3,6.330033E4,4.028775E4,0E0,0E0,0E0,0E0,0E0,0E0,0E0,0E0,0E0,0E0,0E0,0E0,0E0,0E0,0E0,0E0,0E0,0E0,0E0,0E0,0E0,0E0,0E0,0E0,0E0,0E0,0E0,0E0,0E0,0E0,0E0,0E0],"parents":[2147483647,0,0,1,1,2,2,3,3,4,4,5,5,6,6,7,7,8,8,9,9,10,10,11,11,12,12,13,13,14,14,15,15,16,16,17,17,18,18,19,19,20,20,21,21,22,22,23,23,24,24,25,25,26,26,27,27,28,28,29,29,30,30],"right_children":[2,4,6,8,10,12,14,16,18,20,22,24,26,28,30,32,34,36,38,40,42,44,46,48,50,52,54,56,58,60,62,-1,-1,-1,-1,-1,-1,-1,-1,-1,-1,-1,-1,-1,-1,-1,-1,-1,-1,-1,-1,-1,-1,-1,-1,-1,-1,-1,-1,-1,-1,-1,-1],"split_conditions":[3.9437687E0,1.5289949E0,7.500533E0,4.2222363E-1,2.9108505E0,9.82978E0,1.4810251E1,1.0524861E-1,9.331536E-1,6.863875E-1,2.3393383E0,6.863875E-1,6.863875E-1,8.526049E0,1.7798532E1,1.02297544E-1,1.9100328E-1,6.863875E-1,8.875707E-1,2.8571205E0,2.8388543E0,2.0033255E0,2.3899176E0,7.3395443E0,5.865444E0,1.6113887E0,1.1821968E1,7.3395443E0,7.681973E0,1.6979225E1,9.865971E0,-8.742402E-3,1.156364E-2,3.1972583E-2,-2.8259337E-2,6.1679583E-2,1.3092548E-1,-3.3958998E-2,-1.5627673E-2,1.387769E-1,2.451123E-1,2.5799924E-1,4.284819E-1,-3.1352486E-2,1.2931055E-1,-2.7832944E-2,-5.8199625E-2,3.4896103E-1,5.726794E-1,5.6590784E-1,9.293081E-1,7.8152394E-1,1.2157153E0,1.2914581E0,1.8627781E0,-5.0888654E-2,5.2487916E-1,-5.756346E-2,-1.5865085E-1,8.434747E-1,2.1868475E-1,1.725199E0,1.0292495E0],"split_indices":[7,7,0,7,0,7,7,8,0,5,8,5,5,8,7,7,0,5,7,7,8,7,9,7,8,6,7,7,10,0,8,0,0,0,0,0,0,0,0,0,0,0,0,0,0,0,0,0,0,0,0,0,0,0,0,0,0,0,0,0,0,0,0],"split_type":[0,0,0,0,0,0,0,0,0,0,0,0,0,0,0,0,0,0,0,0,0,0,0,0,0,0,0,0,0,0,0,0,0,0,0,0,0,0,0,0,0,0,0,0,0,0,0,0,0,0,0,0,0,0,0,0,0,0,0,0,0,0,0],"sum_hessian":[4.746536E6,4.683671E6,6.2865E4,4.642042E6,4.1629E4,4.2069E4,2.0796E4,4.630695E6,1.1347E4,2.8752E4,1.2877E4,3.3882E4,8.187E3,1.8216E4,2.58E3,4.628325E6,2.37E3,7.881E3,3.466E3,1.4311E4,1.4441E4,2.504E3,1.0373E4,1.6835E4,1.7047E4,3.897E3,4.29E3,9.101E3,9.115E3,1.699E3,8.81E2,4.628248E6,7.7E1,1.597E3,7.73E2,4.087E3,3.794E3,1.262E3,2.204E3,6.374E3,7.937E3,6.518E3,7.923E3,1.753E3,7.51E2,5.243E3,5.13E3,8.823E3,8.012E3,8.815E3,8.232E3,2.969E3,9.28E2,2.786E3,1.504E3,7.01E3,2.091E3,6.257E3,2.858E3,1.029E3,6.7E2,3.5E2,5.31E2],"tree_param":{"num_deleted":"0","num_feature":"11","num_nodes":"63","size_leaf_vector":"1"}},{"base_weights":[3.890449E-4,-1.281414E-1,9.981963E0,-1.6293041E-1,3.5025444E0,1.538192E1,-1.5747684E0,-1.6583884E-1,1.1108745E0,5.9241824E0,-1.2428877E0,2.8286528E1,3.5282655E0,-2.2261193E0,1.7880463E1,-1.6609709E-1,2.6026535E-1,2.0565019E0,-5.651368E-1,1.1786403E1,-1.3506775E-1,-2.897162E-1,-1.6884233E0,2.4317066E1,4.344085E1,1.4833617E0,2.9016102E1,-2.7147832E0,4.8390317E0,3.91728E1,1.0437813E1,-8.304806E-3,-1.5556211E-2,3.040771E-2,-3.0208427E-2,2.1148577E-1,-1.8333627E-2,3.0452518E-2,-3.395095E-2,4.1931215E-1,7.121815E-1,2.1880844E-1,-2.4102505E-2,-5.40039E-2,1.00849055E-1,-7.3859096E-2,-1.0257044E-1,9.289797E-1,1.4562125E0,1.9990969E0,2.6782901E0,5.298411E-1,-8.811735E-3,1.9601771E0,4.9987242E-1,-7.356513E-2,-1.8477295E-1,1.3936052E0,-1.4518034E-1,2.6861627E0,1.4758868E0,-1.73412E-1,9.8521584E-1],"categories":[],"categories_nodes":[],"categories_segments":[],"categories_sizes":[],"default_left":[0,0,0,0,0,0,0,0,0,0,0,0,0,0,0,0,0,0,0,0,0,0,0,0,0,0,0,0,0,0,0,0,0,0,0,0,0,0,0,0,0,0,0,0,0,0,0,0,0,0,0,0,0,0,0,0,0,0,0,0,0,0,0],"id":12,"left_children":[1,3,5,7,9,11,13,15,17,19,21,23,25,27,29,31,33,35,37,39,41,43,45,47,49,51,53,55,57,59,61,-1,-1,-1,-1,-1,-1,-1,-1,-1,-1,-1,-1,-1,-1,-1,-1,-1,-1,-1,-1,-1,-1,-1,-1,-1,-1,-1,-1,-1,-1,-1,-1],"loss_changes":[6.092829E6,5.922276E5,3.76784E6,1.7206055E4,5.1140038E5,6.294329E6,2.437005E5,5.099375E2,1.6769219E4,1.0466179E6,6.385301E3,1.184046E6,1.1178825E6,6.425003E4,9.83188E4,6.09375E-1,8.4450775E2,3.562128E4,5.108191E2,1.250045E5,2.2683588E4,8.736771E3,7.826836E2,4.3011E5,1.410255E5,3.0033238E5,3.08254E5,2.121668E4,2.1479839E5,2.103236E4,5.973075E4,0E0,0E0,0E0,0E0,0E0,0E0,0E0,0E0,0E0,0E0,0E0,0E0,0E0,0E0,0E0,0E0,0E0,0E0,0E0,0E0,0E0,0E0,0E0,0E0,0E0,0E0,0E0,0E0,0E0,0E0,0E0,0E0],"parents":[2147483647,0,0,1,1,2,2,3,3,4,4,5,5,6,6,7,7,8,8,9,9,10,10,11,11,12,12,13,13,14,14,15,15,16,16,17,17,18,18,19,19,20,20,21,21,22,22,23,23,24,24,25,25,26,26,27,27,28,28,29,29,30,30],"right_children":[2,4,6,8,10,12,14,16,18,20,22,24,26,28,30,32,34,36,38,40,42,44,46,48,50,52,54,56,58,60,62,-1,-1,-1,-1,-1,-1,-1,-1,-1,-1,-1,-1,-1,-1,-1,-1,-1,-1,-1,-1,-1,-1,-1,-1,-1,-1,-1,-1,-1,-1,-1,-1],"split_conditions":[4.5380297E0,1.4416183E0,8.605894E0,4.9139684E-1,2.3318412E0,4.656925E0,1.7798532E1,1.02297544E-1,5.2201855E-1,1.2101284E0,4.7449384E0,8.833686E0,1.4810251E1,1.4810251E1,1.0581108E1,3.3241805E-1,3.9151406E-1,7.185957E-1,1.1252928E0,2.7148213E0,2.9108505E0,2.3590734E0,6.863875E-1,4.791657E0,1.1821968E1,9.396272E0,2.1244637E1,1.4397326E1,1.9100328E-1,1.922352E1,2.041328E1,-8.304806E-3,-1.5556211E-2,3.040771E-2,-3.0208427E-2,2.1148577E-1,-1.8333627E-2,3.0452518E-2,-3.395095E-2,4.1931215E-1,7.121815E-1,2.1880844E-1,-2.4102505E-2,-5.40039E-2,1.00849055E-1,-7.3859096E-2,-1.0257044E-1,9.289797E-1,1.4562125E0,1.9990969E0,2.6782901E0,5.298411E-1,-8.811735E-3,1.9601771E0,4.9987242E-1,-7.356513E-2,-1.8477295E-1,1.3936052E0,-1.4518034E-1,2.6861627E0,1.4758868E0,-1.73412E-1,9.8521584E-1],"split_indices":[7,7,1,7,1,0,7,7,1,0,1,7,7,7,0,1,0,0,1,7,0,7,5,10,7,0,0,1,0,1,7,0,0,0,0,0,0,0,0,0,0,0,0,0,0,0,0,0,0,0,0,0,0,0,0,0,0,0,0,0,0,0,0],"split_type":[0,0,0,0,0,0,0,0,0,0,0,0,0,0,0,0,0,0,0,0,0,0,0,0,0,0,0,0,0,0,0,0,0,0,0,0,0,0,0,0,0,0,0,0,0,0,0,0,0,0,0,0,0,0,0,0,0,0,0,0,0,0,0],"sum_hessian":[4.749127E6,4.688752E6,6.0375E4,4.644252E6,4.45E4,4.1148E4,1.9227E4,4.633673E6,1.0579E4,2.9464E4,1.5036E4,1.97E4,2.1448E4,1.8605E4,6.22E2,4.630867E6,2.806E3,6.763E3,3.816E3,1.4975E4,1.4489E4,4.79E3,1.0246E4,1.5613E4,4.087E3,1.9856E4,1.592E3,1.7402E4,1.203E3,1.6E2,4.62E2,4.630838E6,2.9E1,2.001E3,8.05E2,3.565E3,3.198E3,3.37E2,3.479E3,6.284E3,8.691E3,1.034E3,1.3455E4,3.568E3,1.222E3,6.48E3,3.766E3,7.12E3,8.493E3,3.05E3,1.037E3,3.058E3,1.6798E4,1.036E3,5.56E2,7.674E3,9.728E3,3.02E2,9.01E2,6.2E1,9.8E1,1.85E2,2.77E2],"tree_param":{"num_deleted":"0","num_feature":"11","num_nodes":"63","size_leaf_vector":"1"}},{"base_weights":[1.7244984E-4,-1.2372093E-1,9.30793E0,-1.5374638E-1,3.3943372E0,1.5003285E1,-2.5733927E-1,-1.5745178E-1,1.2017096E0,5.780585E0,-1.1170565E0,1.22727E1,2.372232E1,-1.476988E0,1.1098422E1,-1.5779506E-1,2.7870953E-1,2.2131371E0,-6.200652E-1,4.872581E0,7.2759337E0,2.0215783E0,-1.3949833E0,9.363595E0,1.4583143E1,2.0408108E1,3.020022E1,4.726284E0,-2.5043046E0,2.6983809E1,6.3747907E0,-7.89008E-3,1.0227243E-2,3.5401E-2,-2.4964979E-2,8.833701E-2,1.3533309E-1,3.0331517E-2,-3.657436E-2,2.1400674E-1,2.877961E-1,3.56725E-1,4.2582878E-1,4.535411E-2,1.4927305E-1,-3.7982907E-2,-7.993983E-2,4.7660595E-1,2.2026482E-1,7.184374E-1,9.8392373E-1,1.25328E0,9.7713244E-1,1.4403366E0,2.2167544E0,1.3048883E-1,5.6918895E-1,-5.940047E-2,-1.8585415E-1,1.07153E0,1.9403038E0,8.152197E-1,9.302673E-2],"categories":[],"categories_nodes":[],"categories_segments":[],"categories_sizes":[],"default_left":[0,0,0,0,0,0,0,0,0,0,0,0,0,0,0,0,0,0,0,0,0,0,0,0,0,0,0,0,0,0,0,0,0,0,0,0,0,0,0,0,0,0,0,0,0,0,0,0,0,0,0,0,0,0,0,0,0,0,0,0,0,0,0],"id":13,"left_children":[1,3,5,7,9,11,13,15,17,19,21,23,25,27,29,31,33,35,37,39,41,43,45,47,49,51,53,55,57,59,61,-1,-1,-1,-1,-1,-1,-1,-1,-1,-1,-1,-1,-1,-1,-1,-1,-1,-1,-1,-1,-1,-1,-1,-1,-1,-1,-1,-1,-1,-1,-1,-1],"loss_changes":[5.473464E6,4.9478844E5,3.396628E6,2.3326969E4,4.267324E5,9.30128E5,3.223068E5,6.935469E2,2.3332283E4,3.5166375E4,1.19656875E4,1.999035E5,1.99455E5,1.3392828E5,1.6918584E5,1.10078125E1,1.2171428E3,1.7889648E3,6.183778E2,8.4188125E3,1.6575938E3,1.1961475E3,1.6302012E3,1.0968625E4,1.7836E4,2.43725E4,6.0807E4,4.2044938E4,2.877661E4,3.3110156E4,7.80096E4,0E0,0E0,0E0,0E0,0E0,0E0,0E0,0E0,0E0,0E0,0E0,0E0,0E0,0E0,0E0,0E0,0E0,0E0,0E0,0E0,0E0,0E0,0E0,0E0,0E0,0E0,0E0,0E0,0E0,0E0,0E0,0E0],"parents":[2147483647,0,0,1,1,2,2,3,3,4,4,5,5,6,6,7,7,8,8,9,9,10,10,11,11,12,12,13,13,14,14,15,15,16,16,17,17,18,18,19,19,20,20,21,21,22,22,23,23,24,24,25,25,26,26,27,27,28,28,29,29,30,30],"right_children":[2,4,6,8,10,12,14,16,18,20,22,24,26,28,30,32,34,36,38,40,42,44,46,48,50,52,54,56,58,60,62,-1,-1,-1,-1,-1,-1,-1,-1,-1,-1,-1,-1,-1,-1,-1,-1,-1,-1,-1,-1,-1,-1,-1,-1,-1,-1,-1,-1,-1,-1,-1,-1],"split_conditions":[4.137813E0,1.7365146E0,4.055482E0,5.803338E-1,1.728567E0,8.833686E0,1.4810251E1,1.0524861E-1,6.807749E-1,3.0705693E0,3.53839E0,5.845403E0,1.1294624E1,8.19222E0,8.526049E0,1.02297544E-1,1.9717854E-1,1.206875E0,1.2976569E0,2.5854585E0,1.6681777E0,2.5854585E0,2.7517858E0,1.0324813E0,1.7249668E0,7.563671E0,1.7798532E1,8.406788E0,8.526049E0,8.312052E0,1.2949469E1,-7.89008E-3,1.0227243E-2,3.5401E-2,-2.4964979E-2,8.833701E-2,1.3533309E-1,3.0331517E-2,-3.657436E-2,2.1400674E-1,2.877961E-1,3.56725E-1,4.2582878E-1,4.535411E-2,1.4927305E-1,-3.7982907E-2,-7.993983E-2,4.7660595E-1,2.2026482E-1,7.184374E-1,9.8392373E-1,1.25328E0,9.7713244E-1,1.4403366E0,2.2167544E0,1.3048883E-1,5.6918895E-1,-5.940047E-2,-1.8585415E-1,1.07153E0,1.9403038E0,8.152197E-1,9.302673E-2],"split_indices":[7,7,1,7,1,7,7,8,1,7,1,7,7,1,8,7,1,7,1,7,6,7,8,1,6,8,7,7,8,10,1,0,0,0,0,0,0,0,0,0,0,0,0,0,0,0,0,0,0,0,0,0,0,0,0,0,0,0,0,0,0,0,0],"split_type":[0,0,0,0,0,0,0,0,0,0,0,0,0,0,0,0,0,0,0,0,0,0,0,0,0,0,0,0,0,0,0,0,0,0,0,0,0,0,0,0,0,0,0,0,0,0,0,0,0,0,0,0,0,0,0,0,0,0,0,0,0,0,0],"sum_hessian":[4.74645E6,4.684102E6,6.2348E4,4.644464E6,3.9638E4,3.9079E4,2.3269E4,4.631803E6,1.2661E4,2.5925E4,1.3713E4,2.9761E4,9.318E3,2.1013E4,2.256E3,4.628161E6,3.642E3,8.141E3,4.52E3,1.6133E4,9.792E3,1.115E3,1.2598E4,1.3176E4,1.6585E4,6.167E3,3.151E3,2.985E3,1.8028E4,5.16E2,1.74E3,4.628078E6,8.3E1,2.347E3,1.295E3,4.277E3,3.864E3,3.76E2,4.144E3,9.66E3,6.473E3,8.796E3,9.96E2,5.18E2,5.97E2,3.061E3,9.537E3,1.2742E4,4.34E2,1.5919E4,6.66E2,9.62E2,5.205E3,2.871E3,2.8E2,2.266E3,7.19E2,8.646E3,9.382E3,3.53E2,1.63E2,5.43E2,1.197E3],"tree_param":{"num_deleted":"0","num_feature":"11","num_nodes":"63","size_leaf_vector":"1"}},{"base_weights":[3.0758387E-5,-1.1781484E-1,8.831489E0,-1.476137E-1,2.9978652E0,1.4254035E1,-3.1052655E-1,-1.4966282E-1,9.245794E-1,5.1760044E0,-9.8533154E-1,1.155631E1,2.2511307E1,-1.4333661E0,1.0371803E1,-1.4990522E-1,2.4422377E-1,1.7014889E0,-5.210972E-1,3.788311E0,6.340282E0,1.4496173E0,-1.2015228E0,8.93262E0,1.3692892E1,1.9453E1,2.9003426E1,4.472306E0,-2.4072227E0,2.5861444E1,6.0347967E0,-7.495525E-3,8.446516E-3,3.206728E-2,-2.4478244E-2,5.425206E-2,9.7557165E-2,2.6145164E-2,-2.994134E-2,1.4837341E-1,2.1901332E-1,2.7454528E-1,3.477498E-1,4.1813176E-2,1.5748523E-1,-1.774464E-2,-7.225356E-2,4.5491257E-1,2.0047544E-1,6.3074124E-1,7.749673E-1,9.1772383E-1,1.154723E0,1.3819897E0,2.1168506E0,1.22513585E-1,5.4107296E-1,-5.77491E-2,-1.7725645E-1,9.856952E-1,1.6827933E0,7.4826086E-1,9.31583E-2],"categories":[],"categories_nodes":[],"categories_segments":[],"categories_sizes":[],"default_left":[0,0,0,0,0,0,0,0,0,0,0,0,0,0,0,0,0,0,0,0,0,0,0,0,0,0,0,0,0,0,0,0,0,0,0,0,0,0,0,0,0,0,0,0,0,0,0,0,0,0,0,0,0,0,0,0,0,0,0,0,0,0,0],"id":14,"left_children":[1,3,5,7,9,11,13,15,17,19,21,23,25,27,29,31,33,35,37,39,41,43,45,47,49,51,53,55,57,59,61,-1,-1,-1,-1,-1,-1,-1,-1,-1,-1,-1,-1,-1,-1,-1,-1,-1,-1,-1,-1,-1,-1,-1,-1,-1,-1,-1,-1,-1,-1,-1,-1],"loss_changes":[4.940898E6,4.3496697E5,3.0990605E6,1.0195664E4,3.850701E5,8.738445E5,2.791998E5,4.4226562E2,9.943098E3,4.6334125E4,8.261715E3,1.656895E5,1.912745E5,1.2114995E5,1.4857755E5,7.8046875E0,8.3052246E2,8.840332E2,2.5147162E2,6.3488906E3,8.1074375E3,1.3320925E3,2.9711758E3,1.07915E4,3.15505E4,2.586125E4,5.5049E4,3.8257008E4,2.576154E4,2.2528094E4,6.4459508E4,0E0,0E0,0E0,0E0,0E0,0E0,0E0,0E0,0E0,0E0,0E0,0E0,0E0,0E0,0E0,0E0,0E0,0E0,0E0,0E0,0E0,0E0,0E0,0E0,0E0,0E0,0E0,0E0,0E0,0E0,0E0,0E0],"parents":[2147483647,0,0,1,1,2,2,3,3,4,4,5,5,6,6,7,7,8,8,9,9,10,10,11,11,12,12,13,13,14,14,15,15,16,16,17,17,18,18,19,19,20,20,21,21,22,22,23,23,24,24,25,25,26,26,27,27,28,28,29,29,30,30],"right_children":[2,4,6,8,10,12,14,16,18,20,22,24,26,28,30,32,34,36,38,40,42,44,46,48,50,52,54,56,58,60,62,-1,-1,-1,-1,-1,-1,-1,-1,-1,-1,-1,-1,-1,-1,-1,-1,-1,-1,-1,-1,-1,-1,-1,-1,-1,-1,-1,-1,-1,-1,-1,-1],"split_conditions":[4.137813E0,1.2918297E0,4.055482E0,4.9139684E-1,1.0324813E0,8.406788E0,1.4810251E1,1.0524861E-1,7.2310996E-1,2.8571205E0,2.8144608E0,5.845403E0,1.1821968E1,8.19222E0,8.526049E0,1.02297544E-1,1.9717854E-1,7.477446E-1,1.1252928E0,2.0033255E0,6.863875E-1,2.7148213E0,2.3393383E0,1.234979E0,1.2025318E0,1.0825874E1,1.7798532E1,8.406788E0,8.526049E0,7.681973E0,1.2949469E1,-7.495525E-3,8.446516E-3,3.206728E-2,-2.4478244E-2,5.425206E-2,9.7557165E-2,2.6145164E-2,-2.994134E-2,1.4837341E-1,2.1901332E-1,2.7454528E-1,3.477498E-1,4.1813176E-2,1.5748523E-1,-1.774464E-2,-7.225356E-2,4.5491257E-1,2.0047544E-1,6.3074124E-1,7.749673E-1,9.1772383E-1,1.154723E0,1.3819897E0,2.1168506E0,1.22513585E-1,5.4107296E-1,-5.77491E-2,-1.7725645E-1,9.856952E-1,1.6827933E0,7.4826086E-1,9.31583E-2],"split_indices":[7,7,1,7,1,7,7,8,1,7,1,7,7,1,8,7,1,7,1,7,5,7,8,1,5,7,7,7,8,10,1,0,0,0,0,0,0,0,0,0,0,0,0,0,0,0,0,0,0,0,0,0,0,0,0,0,0,0,0,0,0,0,0],"split_type":[0,0,0,0,0,0,0,0,0,0,0,0,0,0,0,0,0,0,0,0,0,0,0,0,0,0,0,0,0,0,0,0,0,0,0,0,0,0,0,0,0,0,0,0,0,0,0,0,0,0,0,0,0,0,0,0,0,0,0,0,0,0,0],"sum_hessian":[4.747445E6,4.684931E6,6.2514E4,4.640549E6,4.4382E4,3.9239E4,2.3275E4,4.631698E6,8.851E3,2.8692E4,1.569E4,2.9578E4,9.661E3,2.1062E4,2.213E3,4.62885E6,2.848E3,5.757E3,3.094E3,1.3092E4,1.56E4,1.279E3,1.4411E4,1.3278E4,1.63E4,6.57E3,3.091E3,2.981E3,1.8081E4,4.83E2,1.73E3,4.628774E6,7.6E1,1.848E3,1E3,1.661E3,4.096E3,2.14E2,2.88E3,5.488E3,7.604E3,6.554E3,9.046E3,9.41E2,3.38E2,3.22E3,1.1191E4,1.2845E4,4.33E2,1.0213E4,6.087E3,5.052E3,1.518E3,2.807E3,2.84E2,2.262E3,7.19E2,8.609E3,9.472E3,2.72E2,2.11E2,5.5E2,1.18E3],"tree_param":{"num_deleted":"0","num_feature":"11","num_nodes":"63","size_leaf_vector":"1"}},{"base_weights":[2.2543667E-4,-1.1047368E-1,8.5175495E0,-1.3872735E-1,3.0725176E0,7.2783127E0,1.5804982E1,-1.4201728E-1,1.1290821E0,2.1190777E0,4.0011115E0,5.389678E0,9.150843E0,1.1708791E1,1.941934E1,-1.4241025E-1,2.9334506E-1,6.854797E-1,1.5919499E0,4.0251284E0,1.9641794E0,3.3338072E0,4.977002E0,3.7740817E0,6.6265736E0,6.612952E0,1.1018794E1,1.0841559E1,2.408524E1,2.0204773E1,7.9142637E0,-7.120777E-3,7.2058993E-3,7.795572E-3,3.057501E-2,1.0053519E-1,2.9053664E-2,8.665892E-2,1.5993578E-2,2.199411E-1,7.751466E-2,6.878375E-2,1.1627827E-1,2.0385574E-1,1.333348E-1,2.768943E-1,1.6799055E-1,3.273784E-1,1.7735659E-1,4.836611E-1,3.152929E-1,4.3819913E-1,2.961415E-1,5.9644055E-1,4.1508588E-1,7.174395E-1,4.340387E-1,1.6168883E0,5.1554245E-1,9.6411127E-1,1.4766752E0,7.2537786E-1,9.06683E-2],"categories":[],"categories_nodes":[],"categories_segments":[],"categories_sizes":[],"default_left":[0,0,0,0,0,0,0,0,0,0,0,0,0,0,0,0,0,0,0,0,0,0,0,0,0,0,0,0,0,0,0,0,0,0,0,0,0,0,0,0,0,0,0,0,0,0,0,0,0,0,0,0,0,0,0,0,0,0,0,0,0,0,0],"id":15,"left_children":[1,3,5,7,9,11,13,15,17,19,21,23,25,27,29,31,33,35,37,39,41,43,45,47,49,51,53,55,57,59,61,-1,-1,-1,-1,-1,-1,-1,-1,-1,-1,-1,-1,-1,-1,-1,-1,-1,-1,-1,-1,-1,-1,-1,-1,-1,-1,-1,-1,-1,-1,-1,-1],"loss_changes":[4.475326E6,4.2138597E5,5.49855E5,1.937196E4,3.649128E4,1.840265E5,1.30798E5,7.9259375E2,2.4671719E3,5.9982344E3,1.3583406E4,5.1763562E4,1.2382425E5,4.4292562E4,4.23115E4,7.0390625E0,1.8258862E2,8.48374E2,1.056168E3,1.4063203E3,3.998539E3,6.140875E3,7.6723438E3,7.051703E3,1.428E4,1.64005E4,3.7120875E4,2.9287094E4,3.0472094E4,3.7289125E4,1.2121646E4,0E0,0E0,0E0,0E0,0E0,0E0,0E0,0E0,0E0,0E0,0E0,0E0,0E0,0E0,0E0,0E0,0E0,0E0,0E0,0E0,0E0,0E0,0E0,0E0,0E0,0E0,0E0,0E0,0E0,0E0,0E0,0E0],"parents":[2147483647,0,0,1,1,2,2,3,3,4,4,5,5,6,6,7,7,8,8,9,9,10,10,11,11,12,12,13,13,14,14,15,15,16,16,17,17,18,18,19,19,20,20,21,21,22,22,23,23,24,24,25,25,26,26,27,27,28,28,29,29,30,30],"right_children":[2,4,6,8,10,12,14,16,18,20,22,24,26,28,30,32,34,36,38,40,42,44,46,48,50,52,54,56,58,60,62,-1,-1,-1,-1,-1,-1,-1,-1,-1,-1,-1,-1,-1,-1,-1,-1,-1,-1,-1,-1,-1,-1,-1,-1,-1,-1,-1,-1,-1,-1,-1,-1],"split_conditions":[4.3512616E0,1.7365146E0,1.0825874E1,6.253652E-1,6.863875E-1,6.863875E-1,6.863875E-1,1.0524861E-1,6.863875E-1,-1.2235075E0,3.0705693E0,7.3395443E0,6.2723007E0,2.041328E1,4.327333E0,1.02297544E-1,1.2025318E0,-1.2235075E0,6.8305486E-1,6.8305486E-1,2.8571205E0,7.143343E-1,1.2335775E0,-1.2235075E0,5.865444E0,5.03501E-3,1.2335775E0,-7.23745E-1,9.865971E0,1.2871037E1,1.1322601E1,-7.120777E-3,7.2058993E-3,7.795572E-3,3.057501E-2,1.0053519E-1,2.9053664E-2,8.665892E-2,1.5993578E-2,2.199411E-1,7.751466E-2,6.878375E-2,1.1627827E-1,2.0385574E-1,1.333348E-1,2.768943E-1,1.6799055E-1,3.273784E-1,1.7735659E-1,4.836611E-1,3.152929E-1,4.3819913E-1,2.961415E-1,5.9644055E-1,4.1508588E-1,7.174395E-1,4.340387E-1,1.6168883E0,5.1554245E-1,9.6411127E-1,1.4766752E0,7.2537786E-1,9.06683E-2],"split_indices":[7,7,7,7,5,5,5,8,5,4,7,7,7,7,2,7,5,4,2,2,7,4,4,4,8,4,4,5,8,9,8,0,0,0,0,0,0,0,0,0,0,0,0,0,0,0,0,0,0,0,0,0,0,0,0,0,0,0,0,0,0,0,0],"split_type":[0,0,0,0,0,0,0,0,0,0,0,0,0,0,0,0,0,0,0,0,0,0,0,0,0,0,0,0,0,0,0,0,0,0,0,0,0,0,0,0,0,0,0,0,0,0,0,0,0,0,0,0,0,0,0,0,0,0,0,0,0,0,0],"sum_hessian":[4.74654E6,4.685642E6,6.0898E4,4.644417E6,4.1225E4,5.2049E4,8.849E3,4.632397E6,1.202E4,2.0342E4,2.0883E4,2.5915E4,2.6134E4,4.15E3,4.699E3,4.62822E6,4.177E3,6.139E3,5.881E3,1.527E3,1.8815E4,1.2405E4,8.478E3,1.1239E4,1.4676E4,1.1082E4,1.5052E4,3.88E3,2.7E2,4.398E3,3.01E2,4.628135E6,8.5E1,2.918E3,1.259E3,4.47E2,5.692E3,5.293E3,5.88E2,1.326E3,2.01E2,7.16E3,1.1655E4,5.865E3,6.54E3,6.293E3,2.185E3,8.48E2,1.0391E4,1.395E3,1.3281E4,2.689E3,8.393E3,1.1273E4,3.779E3,1.477E3,2.403E3,1.68E2,1.02E2,4.005E3,3.93E2,1.44E2,1.57E2],"tree_param":{"num_deleted":"0","num_feature":"11","num_nodes":"63","size_leaf_vector":"1"}},{"base_weights":[2.0433453E-4,-1.1775501E-1,3.918022E0,-1.3366435E-1,1.2784187E0,5.1255956E0,-1.3477035E0,-1.351701E-1,4.3727097E-1,1.7036475E0,-7.425606E-1,3.1315792E0,8.202739E0,-4.3185443E-1,-2.5768912E0,-1.352755E-1,7.1646206E-2,6.331924E-1,-4.1949955E-1,2.270692E0,-4.7361758E-1,-3.7199706E-1,-1.2134576E0,3.86042E0,-4.425873E-1,1.09507675E1,1.1687841E0,-1.2632252E0,5.816083E0,-2.644444E0,1.5626334E1,-6.763919E-3,3.2353553E-1,1.1179579E-2,-2.8103584E-2,1.2557675E-2,6.60176E-2,-1.1542829E-2,-2.721465E-2,5.9983622E-2,2.1035273E-1,5.617607E-3,-5.5743005E-2,-1.1645209E-2,-1.2568162E-1,-6.1407387E-2,2.095319E-1,2.6777405E-1,2.9723605E-2,4.156516E-2,-1.0050329E-1,6.7796475E-1,5.4489106E-2,-2.0433744E-2,3.1540284E-1,-9.102921E-2,2.5742097E-2,4.4143176E-1,1.2663836E-2,-1.3723418E-1,3.4380212E-1,-6.856326E-2,1.2742691E0],"categories":[],"categories_nodes":[],"categories_segments":[],"categories_sizes":[],"default_left":[0,0,0,0,0,0,0,0,0,0,0,0,0,0,0,0,0,0,0,0,0,0,0,0,0,0,0,0,0,0,0,0,0,0,0,0,0,0,0,0,0,0,0,0,0,0,0,0,0,0,0,0,0,0,0,0,0,0,0,0,0,0,0],"id":16,"left_children":[1,3,5,7,9,11,13,15,17,19,21,23,25,27,29,31,33,35,37,39,41,43,45,47,49,51,53,55,57,59,61,-1,-1,-1,-1,-1,-1,-1,-1,-1,-1,-1,-1,-1,-1,-1,-1,-1,-1,-1,-1,-1,-1,-1,-1,-1,-1,-1,-1,-1,-1,-1,-1],"loss_changes":[2.193568E6,1.0234914E5,8.821755E5,3.9166719E3,4.4615047E4,6.92426E5,2.9134434E4,9.905469E1,2.0118965E3,5.295335E4,1.5743867E3,1.78392E5,8.5771525E5,7.704999E4,1.3629258E4,8.725781E1,2.230382E2,2.5603047E3,5.2395172E1,7.0565016E4,3.3303853E3,1.5043357E3,3.206294E2,2.777348E5,2.3164506E4,8.2074325E5,1.0107245E5,1.2974404E4,2.9190625E4,1.0526055E4,6.9057324E3,0E0,0E0,0E0,0E0,0E0,0E0,0E0,0E0,0E0,0E0,0E0,0E0,0E0,0E0,0E0,0E0,0E0,0E0,0E0,0E0,0E0,0E0,0E0,0E0,0E0,0E0,0E0,0E0,0E0,0E0,0E0,0E0],"parents":[2147483647,0,0,1,1,2,2,3,3,4,4,5,5,6,6,7,7,8,8,9,9,10,10,11,11,12,12,13,13,14,14,15,15,16,16,17,17,18,18,19,19,20,20,21,21,22,22,23,23,24,24,25,25,26,26,27,27,28,28,29,29,30,30],"right_children":[2,4,6,8,10,12,14,16,18,20,22,24,26,28,30,32,34,36,38,40,42,44,46,48,50,52,54,56,58,60,62,-1,-1,-1,-1,-1,-1,-1,-1,-1,-1,-1,-1,-1,-1,-1,-1,-1,-1,-1,-1,-1,-1,-1,-1,-1,-1,-1,-1,-1,-1,-1,-1],"split_conditions":[2.439404E0,8.666332E-1,6.123851E0,2.4687262E-1,2.4007869E0,6.863875E-1,1.4397326E1,3.963636E-2,8.6544865E-1,2.3902817E0,4.7449384E0,5.904122E0,5.904122E0,5.5310764E0,2.4291359E1,6.6589725E-1,3.9151406E-1,6.863875E-1,1.4849222E0,6.863875E-1,4.656925E0,3.1807356E0,4.817053E0,1.1973851E0,1.4135617E1,4.479315E0,6.188569E0,3.9885576E0,7.830713E0,2.1957243E1,1.2979049E1,-6.763919E-3,3.2353553E-1,1.1179579E-2,-2.8103584E-2,1.2557675E-2,6.60176E-2,-1.1542829E-2,-2.721465E-2,5.9983622E-2,2.1035273E-1,5.617607E-3,-5.5743005E-2,-1.1645209E-2,-1.2568162E-1,-6.1407387E-2,2.095319E-1,2.6777405E-1,2.9723605E-2,4.156516E-2,-1.0050329E-1,6.7796475E-1,5.4489106E-2,-2.0433744E-2,3.1540284E-1,-9.102921E-2,2.5742097E-2,4.4143176E-1,1.2663836E-2,-1.3723418E-1,3.4380212E-1,-6.856326E-2,1.2742691E0],"split_indices":[10,10,1,10,1,5,1,10,0,0,1,0,0,10,0,0,0,5,0,5,0,0,2,2,0,2,10,10,2,2,2,0,0,0,0,0,0,0,0,0,0,0,0,0,0,0,0,0,0,0,0,0,0,0,0,0,0,0,0,0,0,0,0],"split_type":[0,0,0,0,0,0,0,0,0,0,0,0,0,0,0,0,0,0,0,0,0,0,0,0,0,0,0,0,0,0,0,0,0,0,0,0,0,0,0,0,0,0,0,0,0,0,0,0,0,0,0,0,0,0,0,0,0,0,0,0,0,0,0],"sum_hessian":[4.74651E6,4.607778E6,1.38732E5,4.555865E6,5.1913E4,1.12852E5,2.588E4,4.543882E6,1.1983E4,4.2889E4,9.024E3,6.8479E4,4.4373E4,1.4831E4,1.1049E4,4.541568E6,2.314E3,9.753E3,2.23E3,3.4027E4,8.862E3,5.051E3,3.973E3,5.688E4,1.1599E4,3.1907E4,1.2466E4,1.309E4,1.741E3,1.1009E4,4E1,4.541567E6,1E0,1.867E3,4.47E2,6.269E3,3.484E3,8.89E2,1.341E3,2.191E4,1.2117E4,4.631E3,4.231E3,4.744E3,3.07E2,3.963E3,1E1,3.9018E4,1.7862E4,6.399E3,5.2E3,2.5232E4,6.675E3,9.539E3,2.927E3,9.966E3,3.124E3,1.129E3,6.12E2,1.0895E4,1.14E2,1.5E1,2.5E1],"tree_param":{"num_deleted":"0","num_feature":"11","num_nodes":"63","size_leaf_vector":"1"}},{"base_weights":[4.5272883E-4,-1.0289354E-1,7.967546E0,-1.2892018E-1,2.834236E0,1.1985539E1,-2.5809416E-1,-1.3189763E-1,1.0118227E0,4.698169E0,-1.323642E0,9.840211E0,2.006963E1,-2.0415995E0,1.1814164E1,-1.2871325E-1,-3.827828E-1,1.781452E0,-7.5587386E-1,3.454223E0,5.919243E0,-8.125158E-1,-1.9519249E0,7.3929887E0,1.2135681E1,1.5557885E1,2.4238306E1,-7.092201E-2,-3.8234448E0,8.858552E0,2.5490374E1,-6.4527704E-3,1.3528049E-2,-2.5016045E-2,-8.716083E-3,6.094397E-2,1.1859591E-1,-3.2264765E-2,-7.44708E-2,1.20576225E-1,2.0616333E-1,2.1859288E-1,3.490102E-1,-5.2496146E-2,7.3069386E-2,-9.497168E-2,-1.4500418E-1,2.899203E-1,4.4491863E-1,4.7027817E-1,7.4863046E-1,7.2091943E-1,1.2184609E0,1.084247E0,1.5998538E0,-1.17898405E-1,3.7476683E-1,-1.4372475E-1,-2.9165742E-1,6.772388E-1,1.380962E-1,9.444197E-2,1.3633584E0],"categories":[],"categories_nodes":[],"categories_segments":[],"categories_sizes":[],"default_left":[0,0,0,0,0,0,0,0,0,0,0,0,0,0,0,0,0,0,0,0,0,0,0,0,0,0,0,0,0,0,0,0,0,0,0,0,0,0,0,0,0,0,0,0,0,0,0,0,0,0,0,0,0,0,0,0,0,0,0,0,0,0,0],"id":17,"left_children":[1,3,5,7,9,11,13,15,17,19,21,23,25,27,29,31,33,35,37,39,41,43,45,47,49,51,53,55,57,59,61,-1,-1,-1,-1,-1,-1,-1,-1,-1,-1,-1,-1,-1,-1,-1,-1,-1,-1,-1,-1,-1,-1,-1,-1,-1,-1,-1,-1,-1,-1,-1,-1],"loss_changes":[3.909958E6,3.5836188E5,2.009808E6,1.578282E4,3.191205E5,7.08335E5,4.2971706E5,3.7026484E3,1.6458963E4,4.3164812E4,4.0915605E3,1.8128925E5,1.60751E5,6.1060195E4,1.0361719E5,6.2528906E2,1.4231924E3,2.7967246E3,2.967273E2,9.816594E3,2.3521562E4,3.7966152E3,2.7902734E2,3.7467562E4,1.2888525E5,4.0985312E4,8.74845E4,1.4291728E5,1.7398938E4,6.035992E4,1.9070906E4,0E0,0E0,0E0,0E0,0E0,0E0,0E0,0E0,0E0,0E0,0E0,0E0,0E0,0E0,0E0,0E0,0E0,0E0,0E0,0E0,0E0,0E0,0E0,0E0,0E0,0E0,0E0,0E0,0E0,0E0,0E0,0E0],"parents":[2147483647,0,0,1,1,2,2,3,3,4,4,5,5,6,6,7,7,8,8,9,9,10,10,11,11,12,12,13,13,14,14,15,15,16,16,17,17,18,18,19,19,20,20,21,21,22,22,23,23,24,24,25,25,26,26,27,27,28,28,29,29,30,30],"right_children":[2,4,6,8,10,12,14,16,18,20,22,24,26,28,30,32,34,36,38,40,42,44,46,48,50,52,54,56,58,60,62,-1,-1,-1,-1,-1,-1,-1,-1,-1,-1,-1,-1,-1,-1,-1,-1,-1,-1,-1,-1,-1,-1,-1,-1,-1,-1,-1,-1,-1,-1,-1,-1],"split_conditions":[4.3512616E0,1.7365146E0,8.448402E0,6.253652E-1,3.1807356E0,9.207221E0,1.4810251E1,2.439404E0,1.3393832E0,6.863875E-1,2.439404E0,5.865444E0,6.863875E-1,8.526049E0,2.041328E1,1.0524861E-1,7.8406656E-1,6.863875E-1,1.4759653E0,2.8571205E0,2.8388543E0,3.0705693E0,6.035042E0,6.863875E-1,6.863875E-1,1.4810251E1,1.2320015E1,7.3395443E0,7.681973E0,1.6979225E1,-1.2398893E0,-6.4527704E-3,1.3528049E-2,-2.5016045E-2,-8.716083E-3,6.094397E-2,1.1859591E-1,-3.2264765E-2,-7.44708E-2,1.20576225E-1,2.0616333E-1,2.1859288E-1,3.490102E-1,-5.2496146E-2,7.3069386E-2,-9.497168E-2,-1.4500418E-1,2.899203E-1,4.4491863E-1,4.7027817E-1,7.4863046E-1,7.2091943E-1,1.2184609E0,1.084247E0,1.5998538E0,-1.17898405E-1,3.7476683E-1,-1.4372475E-1,-2.9165742E-1,6.772388E-1,1.380962E-1,9.444197E-2,1.3633584E0],"split_indices":[7,7,0,7,0,7,7,10,0,5,10,8,5,8,7,8,2,5,10,7,8,7,10,5,5,7,7,7,10,0,5,0,0,0,0,0,0,0,0,0,0,0,0,0,0,0,0,0,0,0,0,0,0,0,0,0,0,0,0,0,0,0,0],"split_type":[0,0,0,0,0,0,0,0,0,0,0,0,0,0,0,0,0,0,0,0,0,0,0,0,0,0,0,0,0,0,0,0,0,0,0,0,0,0,0,0,0,0,0,0,0,0,0,0,0,0,0,0,0,0,0,0,0,0,0,0,0,0,0],"sum_hessian":[4.748727E6,4.687918E6,6.0809E4,4.646743E6,4.1175E4,4.0853E4,1.9956E4,4.634647E6,1.2096E4,2.843E4,1.2745E4,3.2287E4,8.566E3,1.7388E4,2.568E3,4.57656E6,5.8087E4,8.427E3,3.669E3,1.4085E4,1.4345E4,7.029E3,5.716E3,1.5629E4,1.6658E4,4.116E3,4.45E3,8.257E3,9.131E3,2.113E3,4.55E2,4.572642E6,3.918E3,3.7143E4,2.0944E4,4.317E3,4.11E3,3.19E3,4.79E2,5.507E3,8.578E3,5.837E3,8.508E3,6.365E3,6.64E2,5.419E3,2.97E2,7.592E3,8.037E3,8.491E3,8.167E3,3.647E3,4.69E2,3.351E3,1.099E3,6.341E3,1.916E3,6.204E3,2.927E3,1.194E3,9.19E2,3.2E1,4.23E2],"tree_param":{"num_deleted":"0","num_feature":"11","num_nodes":"63","size_leaf_vector":"1"}},{"base_weights":[-5.50829E-4,-9.720706E-2,7.518196E0,-1.2249242E-1,2.7085693E0,1.1325569E1,-3.0364668E-1,-1.253001E-1,9.703151E-1,4.4909086E0,-1.2602401E0,9.383799E0,1.8819752E1,-1.9636798E0,1.0898762E1,-1.222789E-1,-3.627835E-1,1.746087E0,-6.1057496E-1,3.3036816E0,5.646119E0,-7.5709695E-1,-1.8610413E0,7.090666E0,1.1482981E1,1.41354065E1,2.3146238E1,-8.595029E-2,-3.6167793E0,6.3988104E0,1.9293491E1,-6.1293575E-3,1.3914446E-2,-1.49273E-2,-2.783967E-2,5.9512388E-2,1.16914526E-1,2.4692195E-2,-3.6882646E-2,1.14294074E-1,1.9723271E-1,2.347657E-1,3.6660329E-1,-4.9733974E-2,6.2937334E-2,-9.0482034E-2,-1.4016484E-1,2.8014198E-1,4.2419717E-1,4.403455E-1,7.119741E-1,6.1641246E-1,9.9880105E-1,1.0317633E0,1.5200461E0,-9.206738E-2,4.5284057E-1,-1.3721924E-1,-2.758953E-1,5.696031E-1,-3.854904E-2,1.2705731E0,7.6424944E-1],"categories":[],"categories_nodes":[],"categories_segments":[],"categories_sizes":[],"default_left":[0,0,0,0,0,0,0,0,0,0,0,0,0,0,0,0,0,0,0,0,0,0,0,0,0,0,0,0,0,0,0,0,0,0,0,0,0,0,0,0,0,0,0,0,0,0,0,0,0,0,0,0,0,0,0,0,0,0,0,0,0,0,0],"id":18,"left_children":[1,3,5,7,9,11,13,15,17,19,21,23,25,27,29,31,33,35,37,39,41,43,45,47,49,51,53,55,57,59,61,-1,-1,-1,-1,-1,-1,-1,-1,-1,-1,-1,-1,-1,-1,-1,-1,-1,-1,-1,-1,-1,-1,-1,-1,-1,-1,-1,-1,-1,-1,-1,-1],"loss_changes":[3.4496975E6,3.3249172E5,1.7942292E6,1.4251406E4,2.9609934E5,5.89514E5,3.6685338E5,3.3239531E3,1.4599023E4,3.9598438E4,3.9201855E3,1.54852E5,1.6865675E5,5.3330766E4,9.605391E4,5.6490625E2,7.251255E2,2.6256387E3,5.5038525E2,9.286125E3,2.3431969E4,3.3834497E3,2.8126172E2,3.1844875E4,1.23816E5,4.2036688E4,7.8304E4,1.2913233E5,1.5138875E4,5.940192E4,2.1388844E4,0E0,0E0,0E0,0E0,0E0,0E0,0E0,0E0,0E0,0E0,0E0,0E0,0E0,0E0,0E0,0E0,0E0,0E0,0E0,0E0,0E0,0E0,0E0,0E0,0E0,0E0,0E0,0E0,0E0,0E0,0E0,0E0],"parents":[2147483647,0,0,1,1,2,2,3,3,4,4,5,5,6,6,7,7,8,8,9,9,10,10,11,11,12,12,13,13,14,14,15,15,16,16,17,17,18,18,19,19,20,20,21,21,22,22,23,23,24,24,25,25,26,26,27,27,28,28,29,29,30,30],"right_children":[2,4,6,8,10,12,14,16,18,20,22,24,26,28,30,32,34,36,38,40,42,44,46,48,50,52,54,56,58,60,62,-1,-1,-1,-1,-1,-1,-1,-1,-1,-1,-1,-1,-1,-1,-1,-1,-1,-1,-1,-1,-1,-1,-1,-1,-1,-1,-1,-1,-1,-1,-1,-1],"split_conditions":[4.5380297E0,1.7365146E0,9.396272E0,6.5522814E-1,3.1807356E0,9.82978E0,1.4810251E1,2.439404E0,7.185957E-1,6.863875E-1,2.439404E0,5.865444E0,6.863875E-1,8.526049E0,1.7798532E1,2.0460005E-1,6.863875E-1,6.863875E-1,1.4142151E0,2.8571205E0,3.7141628E0,3.0705693E0,6.035042E0,6.863875E-1,6.863875E-1,1.6113887E0,1.2320015E1,9.82978E0,7.681973E0,1.6979225E1,9.865971E0,-6.1293575E-3,1.3914446E-2,-1.49273E-2,-2.783967E-2,5.9512388E-2,1.16914526E-1,2.4692195E-2,-3.6882646E-2,1.14294074E-1,1.9723271E-1,2.347657E-1,3.6660329E-1,-4.9733974E-2,6.2937334E-2,-9.0482034E-2,-1.4016484E-1,2.8014198E-1,4.2419717E-1,4.403455E-1,7.119741E-1,6.1641246E-1,9.9880105E-1,1.0317633E0,1.5200461E0,-9.206738E-2,4.5284057E-1,-1.3721924E-1,-2.758953E-1,5.696031E-1,-3.854904E-2,1.2705731E0,7.6424944E-1],"split_indices":[7,7,0,7,0,7,7,10,0,5,10,8,5,8,7,7,5,5,0,7,8,7,10,5,5,6,7,7,10,0,8,0,0,0,0,0,0,0,0,0,0,0,0,0,0,0,0,0,0,0,0,0,0,0,0,0,0,0,0,0,0,0,0],"split_type":[0,0,0,0,0,0,0,0,0,0,0,0,0,0,0,0,0,0,0,0,0,0,0,0,0,0,0,0,0,0,0,0,0,0,0,0,0,0,0,0,0,0,0,0,0,0,0,0,0,0,0,0,0,0,0,0,0,0,0,0,0,0,0],"sum_hessian":[4.74685E6,4.686603E6,6.0247E4,4.644746E6,4.1857E4,4.0522E4,1.9725E4,4.632844E6,1.1902E4,2.8885E4,1.2972E4,3.2185E4,8.337E3,1.718E4,2.545E3,4.574648E6,5.8196E4,7.984E3,3.918E3,1.4247E4,1.4638E4,7.061E3,5.911E3,1.5384E4,1.6801E4,4.005E3,4.332E3,8.044E3,9.136E3,1.658E3,8.87E2,4.571131E6,3.517E3,4.3722E4,1.4474E4,4.12E3,3.864E3,4.04E2,3.514E3,5.507E3,8.74E3,9.362E3,5.276E3,6.317E3,7.44E2,5.608E3,3.03E2,7.442E3,7.942E3,8.527E3,8.274E3,3.061E3,9.44E2,3.221E3,1.111E3,6.749E3,1.295E3,6.264E3,2.872E3,9.77E2,6.81E2,3.49E2,5.38E2],"tree_param":{"num_deleted":"0","num_feature":"11","num_nodes":"63","size_leaf_vector":"1"}},{"base_weights":[-5.525376E-5,-9.193172E-2,3.6940758E0,-1.14104815E-1,1.3152665E0,5.006122E0,-2.9243581E0,-1.1574326E-1,4.438411E-1,1.879588E0,-1.5232567E0,6.2274E0,-2.0241515E-1,-3.3312037E0,7.6612296E0,-1.15659036E-1,-7.4039096E-1,6.699764E-1,-7.114407E-1,2.551374E0,-9.6708477E-1,-8.9796466E-1,-2.100677E0,8.530875E0,9.377005E-1,-1.7173724E0,1.0744794E1,-2.7060838E0,-6.1941524E0,5.3270936E0,2.1752825E1,-5.798172E-3,1.1302852E-2,-2.8512334E-2,-3.874194E-2,4.7377273E-2,-2.9932583E-2,-8.170915E-3,-4.2468615E-2,6.861278E-2,2.3343532E-1,-1.570238E-2,-7.3838525E-2,-3.943893E-2,-1.9551426E-1,-8.697606E-2,-1.3439639E-1,2.751008E-1,6.562942E-1,2.4921803E-2,2.0336723E-1,-2.9471049E-3,-1.5112709E-1,7.2948784E-1,1.0781248E-1,-1.8528956E-1,2.5099812E-2,-2.5363478E-1,-4.0280566E-1,6.2123245E-1,9.815248E-2,3.9652115E-1,2.3598208E0],"categories":[],"categories_nodes":[],"categories_segments":[],"categories_sizes":[],"default_left":[0,0,0,0,0,0,0,0,0,0,0,0,0,0,0,0,0,0,0,0,0,0,0,0,0,0,0,0,0,0,0,0,0,0,0,0,0,0,0,0,0,0,0,0,0,0,0,0,0,0,0,0,0,0,0,0,0,0,0,0,0,0,0],"id":19,"left_children":[1,3,5,7,9,11,13,15,17,19,21,23,25,27,29,31,33,35,37,39,41,43,45,47,49,51,53,55,57,59,61,-1,-1,-1,-1,-1,-1,-1,-1,-1,-1,-1,-1,-1,-1,-1,-1,-1,-1,-1,-1,-1,-1,-1,-1,-1,-1,-1,-1,-1,-1,-1,-1],"loss_changes":[1.6118035E6,1.4458005E5,1.00075775E6,4.1702812E3,1.1514309E5,6.117965E5,8.214139E4,2.3920312E2,3.4899927E3,1.14667266E5,4.3022637E3,9.49301E5,3.0300166E5,3.2845453E4,2.310566E4,4.7309375E2,3.151001E0,3.9342324E3,1.6517566E2,1.2110794E5,3.8102646E3,1.8798872E3,1.3096406E3,7.5530775E5,3.2491361E4,3.4738406E4,7.331181E4,4.83431E4,6.8290156E3,1.4468637E4,3.4794855E4,0E0,0E0,0E0,0E0,0E0,0E0,0E0,0E0,0E0,0E0,0E0,0E0,0E0,0E0,0E0,0E0,0E0,0E0,0E0,0E0,0E0,0E0,0E0,0E0,0E0,0E0,0E0,0E0,0E0,0E0,0E0,0E0],"parents":[2147483647,0,0,1,1,2,2,3,3,4,4,5,5,6,6,7,7,8,8,9,9,10,10,11,11,12,12,13,13,14,14,15,15,16,16,17,17,18,18,19,19,20,20,21,21,22,22,23,23,24,24,25,25,26,26,27,27,28,28,29,29,30,30],"right_children":[2,4,6,8,10,12,14,16,18,20,22,24,26,28,30,32,34,36,38,40,42,44,46,48,50,52,54,56,58,60,62,-1,-1,-1,-1,-1,-1,-1,-1,-1,-1,-1,-1,-1,-1,-1,-1,-1,-1,-1,-1,-1,-1,-1,-1,-1,-1,-1,-1,-1,-1,-1,-1],"split_conditions":[3.0304303E0,8.789642E-1,9.571133E0,3.2777867E-1,2.1462185E0,9.396272E0,1.4734346E1,5.162337E-1,5.768616E-1,2.9108505E0,5.1836834E0,7.3605484E-1,9.435558E0,1.922352E1,2.801043E1,-6.074023E-2,6.6589725E-1,1.3047051E0,1.4428055E0,6.863875E-1,5.333975E0,3.4720888E0,6.863875E-1,6.863875E-1,8.678589E0,1.4135617E1,2.1244637E1,6.459058E0,6.863875E-1,1.4663386E0,-7.23745E-1,-5.798172E-3,1.1302852E-2,-2.8512334E-2,-3.874194E-2,4.7377273E-2,-2.9932583E-2,-8.170915E-3,-4.2468615E-2,6.861278E-2,2.3343532E-1,-1.570238E-2,-7.3838525E-2,-3.943893E-2,-1.9551426E-1,-8.697606E-2,-1.3439639E-1,2.751008E-1,6.562942E-1,2.4921803E-2,2.0336723E-1,-2.9471049E-3,-1.5112709E-1,7.2948784E-1,1.0781248E-1,-1.8528956E-1,2.5099812E-2,-2.5363478E-1,-4.0280566E-1,6.2123245E-1,9.815248E-2,3.9652115E-1,2.3598208E0],"split_indices":[9,9,1,9,1,0,9,0,1,0,1,2,9,1,9,9,0,0,1,5,0,0,5,5,9,0,0,9,5,2,5,0,0,0,0,0,0,0,0,0,0,0,0,0,0,0,0,0,0,0,0,0,0,0,0,0,0,0,0,0,0,0,0],"split_type":[0,0,0,0,0,0,0,0,0,0,0,0,0,0,0,0,0,0,0,0,0,0,0,0,0,0,0,0,0,0,0,0,0,0,0,0,0,0,0,0,0,0,0,0,0,0,0,0,0,0,0,0,0,0,0,0,0,0,0,0,0,0,0],"sum_hessian":[4.748925E6,4.633682E6,1.15243E5,4.561803E6,7.1879E4,9.6177E4,1.9066E4,4.548447E6,1.3356E4,5.9959E4,1.192E4,7.7909E4,1.8268E4,1.8361E4,7.05E2,4.547835E6,6.12E2,1.117E4,2.186E3,4.8511E4,1.1448E4,5.724E3,6.196E3,5.4274E4,2.3635E4,1.6048E4,2.22E3,1.5072E4,3.289E3,6.06E2,9.9E1,4.543788E6,4.047E3,1.06E2,5.06E2,9.165E3,2.005E3,4.4E2,1.746E3,3.116E4,1.7351E4,5.019E3,6.429E3,5.525E3,1.99E2,3.839E3,2.357E3,3.2713E4,2.1561E4,2.0727E4,2.908E3,7.068E3,8.98E3,1.533E3,6.87E2,1.1491E4,3.581E3,2.055E3,1.234E3,1.94E2,4.12E2,6.5E1,3.4E1],"tree_param":{"num_deleted":"0","num_feature":"11","num_nodes":"63","size_leaf_vector":"1"}},{"base_weights":[-3.667799E-4,-9.05868E-2,7.043191E0,-1.14178516E-1,2.5182014E0,1.2164199E1,-1.7547454E0,-1.0843434E-1,-5.5828387E-1,4.5635314E0,-1.7183001E0,2.3052235E1,-2.1385674E-3,-2.3289783E0,1.4518282E1,-1.1096199E-1,9.473533E-1,-7.6432925E-1,-1.996257E-1,9.840269E0,-7.348065E-1,-8.2934684E-1,-2.0237062E0,1.9661694E1,3.5899952E1,-1.4734755E0,2.1884161E1,3.4525778E0,-3.2407882E0,3.5401665E1,8.181305E0,-5.497187E-3,-1.5679438E-2,9.182798E-2,-3.794053E-2,-3.59102E-2,-6.66061E-2,-9.32379E-3,-6.278325E-2,3.5667875E-1,5.7782674E-1,1.5611944E-1,-5.795262E-2,-6.9716565E-2,4.043236E-2,-7.8890316E-2,-1.147125E-1,7.4624586E-1,1.2059056E0,1.5904948E0,2.0817049E0,3.5866804E-2,-1.6464113E-1,1.4579314E0,3.8753793E-1,8.119484E-1,-1.13543764E-1,-1.3061635E-1,-3.2007846E-1,2.4567244E0,1.1794437E0,1.1529894E0,-4.2323348E-1],"categories":[],"categories_nodes":[],"categories_segments":[],"categories_sizes":[],"default_left":[0,0,0,0,0,0,0,0,0,0,0,0,0,0,0,0,0,0,0,0,0,0,0,0,0,0,0,0,0,0,0,0,0,0,0,0,0,0,0,0,0,0,0,0,0,0,0,0,0,0,0,0,0,0,0,0,0,0,0,0,0,0,0],"id":20,"left_children":[1,3,5,7,9,11,13,15,17,19,21,23,25,27,29,31,33,35,37,39,41,43,45,47,49,51,53,55,57,59,61,-1,-1,-1,-1,-1,-1,-1,-1,-1,-1,-1,-1,-1,-1,-1,-1,-1,-1,-1,-1,-1,-1,-1,-1,-1,-1,-1,-1,-1,-1,-1,-1],"loss_changes":[3.0164885E6,2.8845497E5,2.7047662E6,1.1848973E4,3.639743E5,5.0266125E6,2.0643534E5,1.2237277E4,4.3828477E3,7.919998E5,3.7115156E3,8.71598E5,5.771586E5,1.1248774E5,9.936053E4,9.438164E2,1.661702E4,9.855762E2,3.003048E2,6.5849875E4,2.3135758E4,3.2392456E3,1.224332E3,3.34134E5,9.67095E4,6.694067E4,1.1584981E5,2.1277781E5,3.6593125E4,2.723E4,1.435943E5,0E0,0E0,0E0,0E0,0E0,0E0,0E0,0E0,0E0,0E0,0E0,0E0,0E0,0E0,0E0,0E0,0E0,0E0,0E0,0E0,0E0,0E0,0E0,0E0,0E0,0E0,0E0,0E0,0E0,0E0,0E0,0E0],"parents":[2147483647,0,0,1,1,2,2,3,3,4,4,5,5,6,6,7,7,8,8,9,9,10,10,11,11,12,12,13,13,14,14,15,15,16,16,17,17,18,18,19,19,20,20,21,21,22,22,23,23,24,24,25,25,26,26,27,27,28,28,29,29,30,30],"right_children":[2,4,6,8,10,12,14,16,18,20,22,24,26,28,30,32,34,36,38,40,42,44,46,48,50,52,54,56,58,60,62,-1,-1,-1,-1,-1,-1,-1,-1,-1,-1,-1,-1,-1,-1,-1,-1,-1,-1,-1,-1,-1,-1,-1,-1,-1,-1,-1,-1,-1,-1,-1,-1],"split_conditions":[4.849309E0,1.7365146E0,4.7449384E0,2.439404E0,3.136207E0,7.500533E0,1.7798532E1,6.5522814E-1,7.8406656E-1,1.1024159E0,2.7517858E0,8.637194E0,1.4810251E1,9.571133E0,1.0257971E1,8.666332E-1,6.807749E-1,1.682375E0,1.6221069E0,3.112677E0,3.4720888E0,2.5854585E0,2.439404E0,6.3607E0,8.898516E0,8.526049E0,2.1244637E1,1.6948342E0,1.1322601E1,1.922352E1,9.865971E0,-5.497187E-3,-1.5679438E-2,9.182798E-2,-3.794053E-2,-3.59102E-2,-6.66061E-2,-9.32379E-3,-6.278325E-2,3.5667875E-1,5.7782674E-1,1.5611944E-1,-5.795262E-2,-6.9716565E-2,4.043236E-2,-7.8890316E-2,-1.147125E-1,7.4624586E-1,1.2059056E0,1.5904948E0,2.0817049E0,3.5866804E-2,-1.6464113E-1,1.4579314E0,3.8753793E-1,8.119484E-1,-1.13543764E-1,-1.3061635E-1,-3.2007846E-1,2.4567244E0,1.1794437E0,1.1529894E0,-4.2323348E-1],"split_indices":[7,7,1,10,1,0,7,7,2,0,8,8,7,1,0,10,1,6,1,8,0,7,10,8,10,8,0,0,8,1,8,0,0,0,0,0,0,0,0,0,0,0,0,0,0,0,0,0,0,0,0,0,0,0,0,0,0,0,0,0,0,0,0],"split_type":[0,0,0,0,0,0,0,0,0,0,0,0,0,0,0,0,0,0,0,0,0,0,0,0,0,0,0,0,0,0,0,0,0,0,0,0,0,0,0,0,0,0,0,0,0,0,0,0,0,0,0,0,0,0,0,0,0,0,0,0,0,0,0],"sum_hessian":[4.746861E6,4.686829E6,6.0032E4,4.644826E6,4.2003E4,3.7945E4,2.2087E4,4.585517E6,5.9309E4,2.8327E4,1.3676E4,2.0024E4,1.7921E4,2.1335E4,7.52E2,4.574566E6,1.0951E4,3.7668E4,2.1641E4,1.4192E4,1.4135E4,3.498E3,1.0178E4,1.5845E4,4.179E3,1.6793E4,1.128E3,2.906E3,1.8429E4,1.74E2,5.78E2,4.551694E6,2.2872E4,7.199E3,3.752E3,3.484E4,2.828E3,2.1376E4,2.65E2,5.509E3,8.683E3,1.4E3,1.2735E4,2.601E3,8.97E2,3.846E3,6.332E3,7.683E3,8.162E3,2.443E3,1.736E3,7.619E3,9.174E3,7.44E2,3.84E2,8.98E2,2.008E3,1.5374E4,3.055E3,7.9E1,9.5E1,3.05E2,2.73E2],"tree_param":{"num_deleted":"0","num_feature":"11","num_nodes":"63","size_leaf_vector":"1"}},{"base_weights":[8.944312E-5,-9.378423E-2,5.985109E0,-1.0925354E-1,1.9742973E0,9.281496E0,8.036061E-2,-1.09645456E-1,1.0397355E1,3.1835976E0,-1.5667413E-1,7.8748136E0,1.6174488E1,-1.0608436E0,6.326858E0,-1.04307994E-1,-5.305667E-1,7.99386E0,8.244959E-1,2.1618223E0,3.7160392E0,-2.6330945E-1,1.0717044E1,6.154934E0,1.0279331E1,1.7469233E1,4.3016095E0,9.121959E-2,-2.9178445E0,1.1045846E1,3.8596313E0,-5.278049E-3,3.347702E-2,-3.6376394E-2,-9.084418E-3,2.7860865E-1,4.36272E-1,1.1704208E-1,5.6596607E-2,1.9587158E-1,9.249687E-2,-3.4982402E-2,2.433048E-2,4.6468815E-1,1.2117174E0,3.2441363E-1,1.3436207E-1,5.338379E-1,1.7993107E-1,7.896024E-1,1.1816696E0,4.2625028E-1,1.1385454E-1,-8.8580094E-2,2.549751E-1,1.3930072E0,-1.4805041E-1,1.6155913E-1,9.053882E-1,9.96345E-1,1.3577454E-1],"categories":[],"categories_nodes":[],"categories_segments":[],"categories_sizes":[],"default_left":[0,0,0,0,0,0,0,0,0,0,0,0,0,0,0,0,0,0,0,0,0,0,0,0,0,0,0,0,0,0,0,0,0,0,0,0,0,0,0,0,0,0,0,0,0,0,0,0,0,0,0,0,0,0,0,0,0,0,0,0,0],"id":21,"left_children":[1,3,5,7,9,11,13,15,17,19,21,23,25,27,29,31,33,35,-1,37,39,41,43,45,47,49,51,53,55,57,59,-1,-1,-1,-1,-1,-1,-1,-1,-1,-1,-1,-1,-1,-1,-1,-1,-1,-1,-1,-1,-1,-1,-1,-1,-1,-1,-1,-1,-1,-1],"loss_changes":[2.6662765E6,1.4947758E5,1.4264432E6,1.9097969E4,8.939609E4,4.55887E5,1.8717336E5,1.0418805E4,2.401496E3,1.2032016E4,1.4566425E4,1.6147275E5,1.22442625E5,4.7496703E4,4.7180625E4,4.4403906E3,3.9901064E3,1.7460938E2,0E0,1.3956172E3,5.4601875E3,4.0706125E3,2.121919E3,2.63085E4,4.3205125E4,7.391875E4,6.6926094E3,1.27842336E5,1.1374711E4,7.676111E4,4.893715E4,0E0,0E0,0E0,0E0,0E0,0E0,0E0,0E0,0E0,0E0,0E0,0E0,0E0,0E0,0E0,0E0,0E0,0E0,0E0,0E0,0E0,0E0,0E0,0E0,0E0,0E0,0E0,0E0,0E0,0E0],"parents":[2147483647,0,0,1,1,2,2,3,3,4,4,5,5,6,6,7,7,8,8,9,9,10,10,11,11,12,12,13,13,14,14,15,15,16,16,17,17,19,19,20,20,21,21,22,22,23,23,24,24,25,25,26,26,27,27,28,28,29,29,30,30],"right_children":[2,4,6,8,10,12,14,16,18,20,22,24,26,28,30,32,34,36,-1,38,40,42,44,46,48,50,52,54,56,58,60,-1,-1,-1,-1,-1,-1,-1,-1,-1,-1,-1,-1,-1,-1,-1,-1,-1,-1,-1,-1,-1,-1,-1,-1,-1,-1,-1,-1,-1,-1],"split_conditions":[3.615148E0,1.2322428E0,6.236707E0,4.656925E0,2.2872524E0,8.637194E0,8.982929E0,2.5811958E0,7.500533E0,2.1743593E0,7.915226E0,5.865444E0,7.3605484E-1,8.526049E0,1.4135617E1,4.2345396E-1,7.8406656E-1,5.087775E0,8.244959E-1,8.9929473E-1,3.5927534E0,1.9377908E0,1.8616241E1,1.9462818E0,4.117453E0,9.765195E0,1.2564572E0,4.729182E0,7.500533E0,7.3656416E0,6.79377E0,-5.278049E-3,3.347702E-2,-3.6376394E-2,-9.084418E-3,2.7860865E-1,4.36272E-1,1.1704208E-1,5.6596607E-2,1.9587158E-1,9.249687E-2,-3.4982402E-2,2.433048E-2,4.6468815E-1,1.2117174E0,3.2441363E-1,1.3436207E-1,5.338379E-1,1.7993107E-1,7.896024E-1,1.1816696E0,4.2625028E-1,1.1385454E-1,-8.8580094E-2,2.549751E-1,1.3930072E0,-1.4805041E-1,1.6155913E-1,9.053882E-1,9.96345E-1,1.3577454E-1],"split_indices":[8,8,0,0,0,8,9,10,0,8,0,8,2,8,0,8,2,0,0,2,2,9,9,2,2,10,6,9,0,8,8,0,0,0,0,0,0,0,0,0,0,0,0,0,0,0,0,0,0,0,0,0,0,0,0,0,0,0,0,0,0],"split_type":[0,0,0,0,0,0,0,0,0,0,0,0,0,0,0,0,0,0,0,0,0,0,0,0,0,0,0,0,0,0,0,0,0,0,0,0,0,0,0,0,0,0,0,0,0,0,0,0,0,0,0,0,0,0,0,0,0,0,0,0,0],"sum_hessian":[4.745649E6,4.672365E6,7.3284E4,4.637676E6,3.4689E4,4.7029E4,2.6255E4,4.637504E6,1.72E2,2.213E4,1.2559E4,3.906E4,7.969E3,2.22E4,4.055E3,4.579436E6,5.8068E4,1.25E2,4.7E1,7.583E3,1.4547E4,1.2438E4,1.21E2,2.2774E4,1.6286E4,7.185E3,7.84E2,1.3701E4,8.499E3,1.391E3,2.664E3,4.572034E6,7.402E3,3.7114E4,2.0954E4,3.1E1,9.4E1,6.459E3,1.124E3,1.3129E4,1.418E3,7.863E3,4.575E3,1.11E2,1E1,2.0776E4,1.998E3,1.5371E4,9.15E2,5.651E3,1.534E3,2.53E2,5.31E2,9.987E3,3.714E3,1.1E1,8.488E3,6.61E2,7.3E2,1.76E2,2.488E3],"tree_param":{"num_deleted":"0","num_feature":"11","num_nodes":"61","size_leaf_vector":"1"}},{"base_weights":[6.0235395E-4,-6.957003E-2,7.5620546E0,-1.02059655E-1,2.6883206E0,1.2335829E1,-3.6805398E0,-1.0525715E-1,8.807416E-1,5.22922E0,-2.1243198E0,1.0561453E1,2.0126057E1,-4.1599345E0,1.5657594E1,-9.921749E-2,-4.5695254E-1,1.8821645E0,-1.0404863E0,3.8303838E0,6.216831E0,1.3208774E0,-2.3866827E0,1.170957E1,2.7274227E0,1.9096298E1,3.217712E1,-4.6409626E0,1.8780583E-1,2.2019806E1,2.3487718E0,-4.976809E-3,1.4436192E-2,-2.9523497E-2,-1.0752129E-2,7.219542E-2,1.1247136E-1,-2.9778918E-2,-6.328102E-2,1.6467893E-1,2.1701114E-1,2.743162E-1,3.3609927E-1,1.316196E-2,9.487892E-2,-8.1824124E-2,-1.4568745E-1,5.370229E-1,7.3824245E-1,7.044626E-2,2.587737E-1,1.0605534E0,5.4521054E-1,1.8432055E0,1.3553016E0,-1.9446084E-1,-3.3953983E-1,1.6839246E-1,-3.0788448E-1,6.9337624E-1,1.5546604E0,8.699404E-1,-2.0714443E-2],"categories":[],"categories_nodes":[],"categories_segments":[],"categories_sizes":[],"default_left":[0,0,0,0,0,0,0,0,0,0,0,0,0,0,0,0,0,0,0,0,0,0,0,0,0,0,0,0,0,0,0,0,0,0,0,0,0,0,0,0,0,0,0,0,0,0,0,0,0,0,0,0,0,0,0,0,0,0,0,0,0,0,0],"id":22,"left_children":[1,3,5,7,9,11,13,15,17,19,21,23,25,27,29,31,33,35,37,39,41,43,45,47,49,51,53,55,57,59,61,-1,-1,-1,-1,-1,-1,-1,-1,-1,-1,-1,-1,-1,-1,-1,-1,-1,-1,-1,-1,-1,-1,-1,-1,-1,-1,-1,-1,-1,-1,-1,-1],"loss_changes":[2.5192782E6,4.215168E5,2.3430998E6,1.46111875E4,6.6981144E5,4.23387E5,1.2070339E5,9.844035E3,2.9011453E4,4.9500375E4,1.7111125E4,2.24486E5,6.992225E4,2.6559406E4,2.662046E4,5.633164E2,2.5270576E3,1.5921406E3,5.1679297E2,4.0466562E3,7.7165625E3,8.1682104E2,6.9496094E3,6.43035E4,1.0295686E4,9.0531125E4,9.601344E3,1.8452406E4,2.5567291E4,1.53241875E4,4.2903765E3,0E0,0E0,0E0,0E0,0E0,0E0,0E0,0E0,0E0,0E0,0E0,0E0,0E0,0E0,0E0,0E0,0E0,0E0,0E0,0E0,0E0,0E0,0E0,0E0,0E0,0E0,0E0,0E0,0E0,0E0,0E0,0E0],"parents":[2147483647,0,0,1,1,2,2,3,3,4,4,5,5,6,6,7,7,8,8,9,9,10,10,11,11,12,12,13,13,14,14,15,15,16,16,17,17,18,18,19,19,20,20,21,21,22,22,23,23,24,24,25,25,26,26,27,27,28,28,29,29,30,30],"right_children":[2,4,6,8,10,12,14,16,18,20,22,24,26,28,30,32,34,36,38,40,42,44,46,48,50,52,54,56,58,60,62,-1,-1,-1,-1,-1,-1,-1,-1,-1,-1,-1,-1,-1,-1,-1,-1,-1,-1,-1,-1,-1,-1,-1,-1,-1,-1,-1,-1,-1,-1,-1,-1],"split_conditions":[5.2050567E0,2.0033255E0,1.0260589E1,6.9891644E-1,1.9871131E0,1.0825874E1,2.041328E1,1.1996577E0,1.1252928E0,3.604191E0,4.055482E0,2.5512137E0,1.7798532E1,1.4810251E1,2.3084476E1,2.0460005E-1,7.3605484E-1,1.2918297E0,2.3318412E0,2.5854585E0,3.9437687E0,2.8571205E0,6.123851E0,7.8375916E0,7.8375916E0,1.1252928E0,1.9579812E0,8.107349E0,2.0602434E1,2.0324276E1,5.03501E-3,-4.976809E-3,1.4436192E-2,-2.9523497E-2,-1.0752129E-2,7.219542E-2,1.1247136E-1,-2.9778918E-2,-6.328102E-2,1.6467893E-1,2.1701114E-1,2.743162E-1,3.3609927E-1,1.316196E-2,9.487892E-2,-8.1824124E-2,-1.4568745E-1,5.370229E-1,7.3824245E-1,7.044626E-2,2.587737E-1,1.0605534E0,5.4521054E-1,1.8432055E0,1.3553016E0,-1.9446084E-1,-3.3953983E-1,1.6839246E-1,-3.0788448E-1,6.9337624E-1,1.5546604E0,8.699404E-1,-2.0714443E-2],"split_indices":[7,7,1,7,1,7,7,10,1,7,1,1,7,7,1,7,2,7,1,7,7,7,1,7,7,1,1,10,1,9,4,0,0,0,0,0,0,0,0,0,0,0,0,0,0,0,0,0,0,0,0,0,0,0,0,0,0,0,0,0,0,0,0],"split_type":[0,0,0,0,0,0,0,0,0,0,0,0,0,0,0,0,0,0,0,0,0,0,0,0,0,0,0,0,0,0,0,0,0,0,0,0,0,0,0,0,0,0,0,0,0,0,0,0,0,0,0,0,0,0,0,0,0,0,0,0,0,0,0],"sum_hessian":[4.747932E6,4.704276E6,4.3656E4,4.649503E6,5.4773E4,3.0644E4,1.3012E4,4.634426E6,1.5077E4,3.5847E4,1.8926E4,2.4961E4,5.683E3,1.2698E4,3.14E2,4.556184E6,7.8242E4,9.911E3,5.166E3,1.4837E4,2.101E4,1.339E3,1.7587E4,2.177E4,3.191E3,5.238E3,4.45E2,1.1433E4,1.265E3,2.12E2,1.02E2,4.552445E6,3.739E3,5.0415E4,2.7827E4,4.521E3,5.39E3,1.737E3,3.429E3,7.231E3,7.606E3,8.594E3,1.2416E4,4.73E2,8.66E2,7.259E3,1.0328E4,1.6531E4,5.239E3,2.075E3,1.116E3,4.162E3,1.076E3,2.28E2,2.17E2,8.473E3,2.96E3,8.43E2,4.22E2,1.13E2,9.9E1,1.5E1,8.7E1],"tree_param":{"num_deleted":"0","num_feature":"11","num_nodes":"63","size_leaf_vector":"1"}},{"base_weights":[-1.2238558E-4,-7.96214E-2,5.9276648E0,-9.788562E-2,2.0779605E0,9.197059E0,-6.8358916E-1,-9.265619E-2,-4.60639E-1,3.5769947E0,-1.3545429E0,7.5264425E0,1.5924374E1,-1.4605073E0,1.5927639E1,-9.4803475E-2,8.496223E-1,-3.521187E-1,-7.8893113E-1,2.6657107E0,4.476112E0,-9.098799E-1,-1.9260541E0,5.694354E0,9.611521E0,1.1931501E1,1.9565643E1,-2.0334387E0,4.5569487E0,2.202658E1,1.1869537E1,-4.7309296E-3,-3.8435336E-2,7.970193E-2,-4.0603105E-2,-1.738242E-2,-8.615706E-2,-4.494491E-2,-3.0770842E-2,1.094866E-1,1.8295032E-1,1.6512299E-1,2.6595217E-1,-5.0671637E-2,3.7162848E-2,-8.4604375E-2,-1.23006426E-1,3.1772986E-1,5.7882328E-2,4.1141462E-1,6.219484E-1,5.384541E-1,8.8856333E-1,8.7160665E-1,1.3010473E0,-6.2022645E-2,-2.793798E-1,4.633603E-1,-1.09345816E-1,8.604359E-1,1.4226655E0,1.8557034E-1,9.078555E-1],"categories":[],"categories_nodes":[],"categories_segments":[],"categories_sizes":[],"default_left":[0,0,0,0,0,0,0,0,0,0,0,0,0,0,0,0,0,0,0,0,0,0,0,0,0,0,0,0,0,0,0,0,0,0,0,0,0,0,0,0,0,0,0,0,0,0,0,0,0,0,0,0,0,0,0,0,0,0,0,0,0,0,0],"id":23,"left_children":[1,3,5,7,9,11,13,15,17,19,21,23,25,27,29,31,33,35,37,39,41,43,45,47,49,51,53,55,57,59,61,-1,-1,-1,-1,-1,-1,-1,-1,-1,-1,-1,-1,-1,-1,-1,-1,-1,-1,-1,-1,-1,-1,-1,-1,-1,-1,-1,-1,-1,-1,-1,-1],"loss_changes":[2.2372998E6,1.846091E5,1.3580205E6,8.81227E3,2.0234414E5,4.723465E5,2.6832994E5,9.265758E3,2.3516318E3,2.2414531E4,3.0361152E3,1.28597E5,1.213425E5,6.848531E4,2.2731422E4,5.691953E2,1.2880783E4,3.034961E2,3.1237305E2,6.42E3,1.3611125E4,1.1519854E3,6.4935547E2,5.3695938E4,6.1495875E4,2.6900562E4,5.975975E4,5.11075E4,5.4879E4,1.0966719E4,2.8657719E4,0E0,0E0,0E0,0E0,0E0,0E0,0E0,0E0,0E0,0E0,0E0,0E0,0E0,0E0,0E0,0E0,0E0,0E0,0E0,0E0,0E0,0E0,0E0,0E0,0E0,0E0,0E0,0E0,0E0,0E0,0E0,0E0],"parents":[2147483647,0,0,1,1,2,2,3,3,4,4,5,5,6,6,7,7,8,8,9,9,10,10,11,11,12,12,13,13,14,14,15,15,16,16,17,17,18,18,19,19,20,20,21,21,22,22,23,23,24,24,25,25,26,26,27,27,28,28,29,29,30,30],"right_children":[2,4,6,8,10,12,14,16,18,20,22,24,26,28,30,32,34,36,38,40,42,44,46,48,50,52,54,56,58,60,62,-1,-1,-1,-1,-1,-1,-1,-1,-1,-1,-1,-1,-1,-1,-1,-1,-1,-1,-1,-1,-1,-1,-1,-1,-1,-1,-1,-1,-1,-1,-1,-1],"split_conditions":[3.9437687E0,1.7365146E0,7.500533E0,2.3048882E0,3.4720888E0,9.207221E0,1.7798532E1,6.9891644E-1,6.863875E-1,6.863875E-1,2.439404E0,6.6603894E0,6.863875E-1,1.3743007E1,9.865971E0,5.162337E-1,1.3393832E0,1.752165E0,7.143343E-1,3.604191E0,2.8388543E0,3.0705693E0,3.0487306E0,2.5026772E0,1.2025318E0,1.29425745E1,1.2320015E1,7.278426E0,1.6979225E1,9.143503E0,6.863875E-1,-4.7309296E-3,-3.8435336E-2,7.970193E-2,-4.0603105E-2,-1.738242E-2,-8.615706E-2,-4.494491E-2,-3.0770842E-2,1.094866E-1,1.8295032E-1,1.6512299E-1,2.6595217E-1,-5.0671637E-2,3.7162848E-2,-8.4604375E-2,-1.23006426E-1,3.1772986E-1,5.7882328E-2,4.1141462E-1,6.219484E-1,5.384541E-1,8.8856333E-1,8.7160665E-1,1.3010473E0,-6.2022645E-2,-2.793798E-1,4.633603E-1,-1.09345816E-1,8.604359E-1,1.4226655E0,1.8557034E-1,9.078555E-1],"split_indices":[7,7,0,10,0,7,7,7,5,5,10,7,5,7,8,0,0,0,4,7,8,7,9,0,5,7,7,10,0,10,5,0,0,0,0,0,0,0,0,0,0,0,0,0,0,0,0,0,0,0,0,0,0,0,0,0,0,0,0,0,0,0,0],"split_type":[0,0,0,0,0,0,0,0,0,0,0,0,0,0,0,0,0,0,0,0,0,0,0,0,0,0,0,0,0,0,0,0,0,0,0,0,0,0,0,0,0,0,0,0,0,0,0,0,0,0,0,0,0,0,0,0,0,0,0,0,0,0,0],"sum_hessian":[4.747551E6,4.684724E6,6.2827E4,4.645401E6,3.9323E4,4.2038E4,2.0789E4,4.579386E6,6.6015E4,2.737E4,1.1953E4,3.3677E4,8.361E3,1.9861E4,9.28E2,4.568975E6,1.0411E4,4.9616E4,1.6399E4,1.3595E4,1.3775E4,6.724E3,5.229E3,1.7928E4,1.5749E4,3.99E3,4.371E3,1.8135E4,1.726E3,3.69E2,5.59E2,4.567723E6,1.252E3,7.19E3,3.221E3,4.9456E4,1.6E2,1.0035E4,6.364E3,9.193E3,4.402E3,5.76E3,8.015E3,6.328E3,3.96E2,3.639E3,1.59E3,1.565E4,2.278E3,1.0578E4,5.171E3,3.33E3,6.6E2,3.288E3,1.083E3,1.4828E4,3.307E3,1.016E3,7.1E2,2.13E2,1.56E2,2.44E2,3.15E2],"tree_param":{"num_deleted":"0","num_feature":"11","num_nodes":"63","size_leaf_vector":"1"}},{"base_weights":[-2.2914191E-4,-7.983802E-2,5.184714E0,-9.371929E-2,1.7108444E0,9.534906E0,-3.012583E0,-9.405656E-2,9.112528E0,3.2695231E0,-9.8114026E-1,1.9059965E1,-1.7301835E-1,-3.2209337E0,9.688757E0,-8.942835E-2,-4.581199E-1,6.4349566E0,7.372591E-1,6.7494545E0,-1.3993268E-1,-1.1079459E0,1.1021048E1,1.35734005E1,2.5617754E1,-1.2907096E0,1.00384245E1,-1.8835862E0,-4.9083767E0,3.431187E0,1.770455E1,-4.5243152E-3,2.7429763E-2,-1.7512878E-2,-3.918049E-2,2.3102672E-1,3.5176328E-1,2.5580463E-1,4.1136834E-1,-3.6075696E-2,7.007017E-2,-5.859334E-2,4.0052438E-1,3.757002E-1,7.160273E-1,5.6306005E-1,7.559149E-1,1.1711459E0,1.8091835E0,5.971772E-3,-1.6495065E-1,9.2061806E-1,3.083977E-1,-1.1570346E-1,3.0344662E-1,-1.987599E-1,-3.5429555E-1,4.4128977E-2,6.335691E-1,1.174549E0,-3.5766074E-1],"categories":[],"categories_nodes":[],"categories_segments":[],"categories_sizes":[],"default_left":[0,0,0,0,0,0,0,0,0,0,0,0,0,0,0,0,0,0,0,0,0,0,0,0,0,0,0,0,0,0,0,0,0,0,0,0,0,0,0,0,0,0,0,0,0,0,0,0,0,0,0,0,0,0,0,0,0,0,0,0,0],"id":24,"left_children":[1,3,5,7,9,11,13,15,17,19,21,23,25,27,29,31,33,35,-1,37,39,41,43,45,47,49,51,53,55,57,59,-1,-1,-1,-1,-1,-1,-1,-1,-1,-1,-1,-1,-1,-1,-1,-1,-1,-1,-1,-1,-1,-1,-1,-1,-1,-1,-1,-1,-1,-1],"loss_changes":[1.9598272E6,1.1623669E5,2.5603328E6,1.4408871E4,1.5093534E5,4.337333E6,6.590636E4,7.8183164E3,2.4690273E3,2.7029006E5,2.0088191E4,8.51507E5,2.6515394E5,5.5261812E4,2.0103324E4,3.0927695E3,2.044668E3,9.493115E1,0E0,2.7172938E4,1.0316922E4,7.6180117E3,1.4892598E3,4.5885E4,2.49238E5,5.9302445E4,7.417261E4,4.6795156E4,2.197461E4,5.3345825E3,2.5483473E4,0E0,0E0,0E0,0E0,0E0,0E0,0E0,0E0,0E0,0E0,0E0,0E0,0E0,0E0,0E0,0E0,0E0,0E0,0E0,0E0,0E0,0E0,0E0,0E0,0E0,0E0,0E0,0E0,0E0,0E0],"parents":[2147483647,0,0,1,1,2,2,3,3,4,4,5,5,6,6,7,7,8,8,9,9,10,10,11,11,12,12,13,13,14,14,15,15,16,16,17,17,19,19,20,20,21,21,22,22,23,23,24,24,25,25,26,26,27,27,28,28,29,29,30,30],"right_children":[2,4,6,8,10,12,14,16,18,20,22,24,26,28,30,32,34,36,-1,38,40,42,44,46,48,50,52,54,56,58,60,-1,-1,-1,-1,-1,-1,-1,-1,-1,-1,-1,-1,-1,-1,-1,-1,-1,-1,-1,-1,-1,-1,-1,-1,-1,-1,-1,-1,-1,-1],"split_conditions":[3.9406044E0,1.30822E0,6.6011667E0,4.656925E0,2.3318412E0,7.0265985E0,1.7044851E1,2.5811958E0,7.816153E0,2.2872524E0,8.19222E0,7.948622E0,1.0076072E1,1.4397326E1,1.2335775E0,4.2345396E-1,6.863875E-1,5.333975E0,7.372591E-1,2.5802283E0,2.3899176E0,7.915226E0,4.894215E0,4.8653126E0,8.312052E0,8.526049E0,1.4135617E1,7.3656416E0,1.1322601E1,1.2025318E0,1.1413179E1,-4.5243152E-3,2.7429763E-2,-1.7512878E-2,-3.918049E-2,2.3102672E-1,3.5176328E-1,2.5580463E-1,4.1136834E-1,-3.6075696E-2,7.007017E-2,-5.859334E-2,4.0052438E-1,3.757002E-1,7.160273E-1,5.6306005E-1,7.559149E-1,1.1711459E0,1.8091835E0,5.971772E-3,-1.6495065E-1,9.2061806E-1,3.083977E-1,-1.1570346E-1,3.0344662E-1,-1.987599E-1,-3.5429555E-1,4.4128977E-2,6.335691E-1,1.174549E0,-3.5766074E-1],"split_indices":[8,8,1,0,1,0,9,10,1,0,1,8,9,1,4,8,5,0,0,8,9,0,10,8,10,8,0,8,8,5,8,0,0,0,0,0,0,0,0,0,0,0,0,0,0,0,0,0,0,0,0,0,0,0,0,0,0,0,0,0,0],"split_type":[0,0,0,0,0,0,0,0,0,0,0,0,0,0,0,0,0,0,0,0,0,0,0,0,0,0,0,0,0,0,0,0,0,0,0,0,0,0,0,0,0,0,0,0,0,0,0,0,0,0,0,0,0,0,0,0,0,0,0,0,0],"sum_hessian":[4.748015E6,4.676218E6,7.1797E4,4.640248E6,3.597E4,4.6905E4,2.4892E4,4.640079E6,1.69E2,2.278E4,1.319E4,2.3675E4,2.323E4,2.4491E4,4.01E2,4.581833E6,5.8246E4,1.16E2,5.3E1,1.1273E4,1.1507E4,1.3053E4,1.37E2,1.2892E4,1.0783E4,2.0939E4,2.291E3,1.3664E4,1.0827E4,2.26E2,1.75E2,4.574249E6,7.584E3,4.375E4,1.4496E4,3.1E1,8.5E1,5.357E3,5.916E3,8.355E3,3.152E3,1.2963E4,9E1,6.8E1,6.9E1,5.167E3,7.725E3,8.931E3,1.852E3,1.2302E4,8.637E3,7.23E2,1.568E3,1.2963E4,7.01E2,7.581E3,3.246E3,1.78E2,4.8E1,1.42E2,3.3E1],"tree_param":{"num_deleted":"0","num_feature":"11","num_nodes":"61","size_leaf_vector":"1"}},{"base_weights":[7.372075E-5,-6.0029954E-2,6.475908E0,-8.754761E-2,2.276309E0,9.9406595E0,-1.310347E0,-9.023416E-2,7.6298666E-1,4.0411134E0,-1.660392E0,8.528113E0,1.709409E1,-2.3279576E0,1.3758048E1,-8.497951E-2,-3.9125708E-1,1.5027124E0,-7.795807E-1,2.894648E0,4.878756E0,-1.0381387E0,-2.1605868E0,6.748758E0,1.0294013E1,1.3123595E1,2.0548248E1,-1.4442928E0,-4.7944984E0,9.217327E0,1.7919214E1,-4.2650322E-3,1.4045074E-2,-2.5905669E-2,-8.287656E-3,8.9862965E-2,3.454969E-2,-3.0942837E-2,-7.776949E-2,1.6472568E-1,6.925131E-2,2.0333295E-1,3.247086E-1,-4.422344E-2,-1.0230923E-1,-1.0351755E-1,-3.1934863E-1,3.7225065E-1,1.668229E-1,5.616898E-1,3.0466938E-1,6.187822E-1,1.5658265E0,1.0706828E0,3.438116E-1,-1.2792803E-1,2.8903717E-1,-2.0377408E-1,-3.5119173E-1,5.8850163E-1,7.09395E-2,-1.650678E-2,9.791574E-1],"categories":[],"categories_nodes":[],"categories_segments":[],"categories_sizes":[],"default_left":[0,0,0,0,0,0,0,0,0,0,0,0,0,0,0,0,0,0,0,0,0,0,0,0,0,0,0,0,0,0,0,0,0,0,0,0,0,0,0,0,0,0,0,0,0,0,0,0,0,0,0,0,0,0,0,0,0,0,0,0,0,0,0],"id":25,"left_children":[1,3,5,7,9,11,13,15,17,19,21,23,25,27,29,31,33,35,37,39,41,43,45,47,49,51,53,55,57,59,61,-1,-1,-1,-1,-1,-1,-1,-1,-1,-1,-1,-1,-1,-1,-1,-1,-1,-1,-1,-1,-1,-1,-1,-1,-1,-1,-1,-1,-1,-1,-1,-1],"loss_changes":[1.848488E6,3.025208E5,1.1781988E6,1.0627051E4,3.8057025E5,3.0525425E5,2.062711E5,7.3332188E3,1.6711098E4,3.6307438E4,5.2752773E3,7.9245E4,6.807075E4,2.7455977E4,1.5914219E4,5.3540234E2,2.275253E3,2.3652617E3,5.909463E2,9.635656E3,2.8642E4,1.1689727E3,3.5712969E3,2.9853562E4,4.993675E4,3.1195312E4,3.1361E4,7.47085E4,5.2979062E3,8.125418E3,1.3458453E4,0E0,0E0,0E0,0E0,0E0,0E0,0E0,0E0,0E0,0E0,0E0,0E0,0E0,0E0,0E0,0E0,0E0,0E0,0E0,0E0,0E0,0E0,0E0,0E0,0E0,0E0,0E0,0E0,0E0,0E0,0E0,0E0],"parents":[2147483647,0,0,1,1,2,2,3,3,4,4,5,5,6,6,7,7,8,8,9,9,10,10,11,11,12,12,13,13,14,14,15,15,16,16,17,17,18,18,19,19,20,20,21,21,22,22,23,23,24,24,25,25,26,26,27,27,28,28,29,29,30,30],"right_children":[2,4,6,8,10,12,14,16,18,20,22,24,26,28,30,32,34,36,38,40,42,44,46,48,50,52,54,56,58,60,62,-1,-1,-1,-1,-1,-1,-1,-1,-1,-1,-1,-1,-1,-1,-1,-1,-1,-1,-1,-1,-1,-1,-1,-1,-1,-1,-1,-1,-1,-1,-1,-1],"split_conditions":[5.2050567E0,2.0033255E0,1.0257971E1,7.477446E-1,3.795226E0,1.0825874E1,1.7798532E1,9.665557E-1,1.0112747E0,3.604191E0,7.0265985E0,6.863875E-1,6.863875E-1,1.8874964E1,2.041328E1,1.02297544E-1,2.0238587E-1,1.2918955E0,2.0239103E0,2.6228313E0,1.2025318E0,3.865038E0,9.144416E0,3.2380912E-1,2.5026772E0,1.7798532E1,5.222084E0,1.0825874E1,2.266644E1,2.1618795E1,-1.2398893E0,-4.2650322E-3,1.4045074E-2,-2.5905669E-2,-8.287656E-3,8.9862965E-2,3.454969E-2,-3.0942837E-2,-7.776949E-2,1.6472568E-1,6.925131E-2,2.0333295E-1,3.247086E-1,-4.422344E-2,-1.0230923E-1,-1.0351755E-1,-3.1934863E-1,3.7225065E-1,1.668229E-1,5.616898E-1,3.0466938E-1,6.187822E-1,1.5658265E0,1.0706828E0,3.438116E-1,-1.2792803E-1,2.8903717E-1,-2.0377408E-1,-3.5119173E-1,5.8850163E-1,7.09395E-2,-1.650678E-2,9.791574E-1],"split_indices":[7,7,0,7,0,7,7,9,0,7,0,5,5,0,7,7,2,9,9,9,5,9,9,0,0,7,2,7,0,0,5,0,0,0,0,0,0,0,0,0,0,0,0,0,0,0,0,0,0,0,0,0,0,0,0,0,0,0,0,0,0,0,0],"split_type":[0,0,0,0,0,0,0,0,0,0,0,0,0,0,0,0,0,0,0,0,0,0,0,0,0,0,0,0,0,0,0,0,0,0,0,0,0,0,0,0,0,0,0,0,0,0,0,0,0,0,0,0,0,0,0,0,0,0,0,0,0,0,0],"sum_hessian":[4.749192E6,4.70552E6,4.3672E4,